-0.0489151099746703,-0.0383616294063902,-0.594559234437576,-0.156603501328909,1.68473115006492,-0.710679705680626,0.223041868002184,-0.244992956369579,0.174756294260989
-0.247235460246516,-0.212701904243369,-1.06522056929814,-0.0646849322024634,0.413426065751162,0.149043515560764,-0.0994151543979096,0.222796185251054,-0.0383706731203365
0.238450607623442,-0.159162901608052,-0.427120843269372,1.65716420570975,0.760845737198196,-0.264302415222576,0.186670157527876,0.150548348126595,-0.183136128501351
0.0158085977458118,0.126283544379177,-0.152748131788665,0.60243377685186,0.140843854109804,0.100915024651842,-0.0368985899957535,-0.170406243608923,0.541567284958359
-0.0438680801163986,-0.144214423955699,-0.0962642568396098,0.0207363631384331,0.696374352466291,1.43801149898751,-0.113567633197846,0.0280833738956803,-0.0174789585180815
-0.201073690929109,0.873738917232997,-0.14147169810709,0.0865285198521581,1.00603885582375,-0.0880739950366887,-0.179632507396001,0.241945545388888,-0.00631420138575312
-1.10216071271318,0.431019761229178,-0.0431391323916825,0.0916543882734997,0.736526203407452,0.0068368283578697,0.00580700319128979,0.0372818334348191,-0.281048650926578
0.11064299806282,0.121668486544055,-1.16790395211126,0.240007154237658,0.425382620579268,-0.108519731899848,-0.0296613438610356,-0.136628941019885,0.053129905743651
-0.0938272553416665,0.258982283673584,-0.0867215117534075,0.422986374773932,0.422621369335271,1.29510769697236,-0.334928926450976,0.293015898582308,0.00785700090160069
-0.104000468209541,0.0580395489998677,-0.256010360824495,0.908888781510834,0.0852993702124891,1.66756549309781,0.0133188453366326,-0.324858837879281,0.407164500111839
0.058703456716783,0.0622233544508237,-0.0379376543050413,0.0464169295310759,1.62589120085602,-0.0375728157727391,-0.0167614619717904,0.0206303348873651,-0.0145338182080159
-0.095587110925119,0.49894520150242,-0.356572821094213,0.721820421043086,0.253683057433966,0.121629484158593,-0.147141954833377,0.52405314478393,0.0250379975796271
0.0398897836994241,0.602280009945039,-0.0202815572865598,0.0364380941215749,0.469206819188303,0.324480366053264,0.0747824930657286,0.168069049822359,0.0360186831897842
-0.0545428511690034,0.118371966112245,-0.186762470885402,0.704390500427725,0.134654203692992,0.94796588482477,-0.19759347977978,0.353761599323822,-0.0505376117450078
-0.158670374563786,0.0191373565825614,-0.288478734302736,0.136699255569665,1.16126221264772,-0.276229256784254,0.0407560186431812,-0.0494161947629435,0.306438622975265
-0.111192972837508,0.543289572601972,0.141020941076959,-0.0744546158294668,1.08837095280598,0.829082243035046,0.130442112442621,0.0856895834777642,0.220521767860355
-0.0804850625313533,1.69573406351022,-0.110208811389499,0.407122496409738,0.19241269018181,-0.00274435797521339,-0.164792453596432,-0.203294755957732,-0.0636584592392007
-0.412689210171076,0.325331592329964,0.115953635627887,0.0329527220380719,0.36591596808044,0.832870584682944,0.0170418229915503,0.144065144308135,-0.148670573039339
-0.0276622247303253,0.100098255183025,-0.0791829738659811,0.771753112566205,0.250392282032024,-0.0339625024282357,-0.0683576398891601,0.284727911375211,0.125392164945225
0.0855563276442929,0.390824534435238,-0.133200678698448,-0.0302412474947635,1.6894017133978,0.0145479834974631,-0.179947169038201,0.490790626599623,0.287022318044616
0.27929950576518,0.162014590589333,-0.853323865514434,0.25253483446097,0.200738333902711,0.107966817778553,-0.251341220818681,-0.186128681655893,0.607431345803606
-0.130736921145033,0.27253809071389,0.199045322831866,0.186478780316713,0.316732005878781,0.274610276286967,0.0132332670594737,0.215465042423563,0.0276064811669654
0.11029695643244,0.199626464054377,0.0305183326136174,0.621184172479785,0.377954179750838,1.0911540513099,-0.262962012875733,-0.0134642020799545,0.0963141936161636
0.0323174626762062,0.0675887756855018,-0.0260861893151105,0.683939700522943,0.279115185844537,1.24277365761446,-0.111972756726566,-0.118933830626214,0.0250256269154354
-0.0822533728239785,0.233997064092251,0.194735036715529,-0.0434300767382196,0.271028239110846,0.536472942568944,0.0956662843701199,0.477138833115563,0.0171687910676237
0.0551763677711223,0.0440029245725002,-0.021453916550576,-0.0426299641763688,-0.00775656866775165,1.64370362227351,-0.00625001658172852,-0.0146394753051822,-0.00325264469354813
-0.00799062322111688,1.04796970569067,-0.0213616674765111,-0.274378588115987,0.0688554700780735,0.176249735207968,0.14837056090601,0.00397946860761067,-0.316032090850531
-0.234744575126784,-0.0247711031131548,0.033174042825201,0.349713145580553,0.341257326721265,0.661393054607744,0.0888395114390486,0.284894360027953,0.107813058369223
-0.224239708362533,1.24502368110882,0.130841322165034,0.422770770239189,0.278883661501195,0.238559432484612,-0.0885812514474464,0.278987897039754,-0.262503752849626
-0.0115952373144315,0.155669036826985,-0.227367427908947,0.582441565410491,1.39322942805535,-0.248865010183088,-0.0899964181905553,-0.0630171650941298,0.0662260239689072
-0.376905623281292,1.14741841949681,0.204123849943154,-0.0173866492487127,0.686398636190223,0.328221017628606,0.0433626466126498,0.344953719490735,-0.610633028994348
-0.0169590121162058,0.884172850976279,-0.0370072704036506,0.149261809742285,0.639984383697653,0.810625868828058,0.0769263090802417,-0.0724226680391382,-0.0902185961301356
0.152180178787446,-0.0572315871266444,-0.239555572680682,0.169223014440226,-0.061866236546285,0.779777387225142,-0.0376094180525666,0.0106681593956459,0.907945875920761
-0.134057672620412,0.41192014768078,-0.244535827756418,0.666072934102703,0.348760977450453,0.278769394861137,-0.136314510810601,1.24330675442626,0.657025873686424
0.0663792303689492,-0.0212847020889901,-1.46952051874829,0.61260969837489,0.0435542219455121,0.212434834770059,-0.421534414303422,-0.237500648644817,-0.272047861618525
0.075058071186243,0.785576943386582,0.14105373000829,-0.342335570470586,0.579299550916738,0.0228497683872702,0.113625454342619,0.0880244749689378,-0.431496544154437
0.000790466194022343,0.211970461409009,-0.19007380461322,0.0611615125706928,1.19816271058225,-0.21209361741774,0.0101921268958036,-0.106037879886018,-0.175766906105372
0.0882005154104988,-0.0663253669439197,-0.109574424471161,0.0307082158571053,0.0427800534516507,0.0346608463317972,0.0292231640906477,0.072087403320201,-0.0643298170899165
0.125287459288706,-0.0356202410496183,-0.104506263197658,0.0090185592448524,0.00260198451639804,-0.00920992518223507,0.0603723337134028,0.0869433709757841,1.81576648924091
0.17092973513628,0.795744208156167,-0.769597593798528,0.689782517735896,0.780467420739413,-0.0166025733128086,0.00600721526420145,0.0353025460384933,-0.0981548017182052
0.104209225740339,0.0545734143733489,-0.0978653567430188,0.137593108181857,-0.0991709222321182,0.000789272781534844,-0.146981682002616,-0.0556480294639501,0.0579783146279684
-0.11419400709461,0.529492672823817,-0.423795442213897,0.978427555916136,0.28778094574205,-0.0959369076973724,-0.038316029089446,-0.0384672915614921,0.0260696169484831
0.213541324425497,0.073952752197981,0.0191520093657953,0.784135486043231,0.231946612935523,0.119033150477312,0.0852844882036248,0.0697874034876094,0.106460068637032
-0.686071898295186,-0.078362760613766,-0.311206992145934,0.146432378716766,0.0315317640332768,0.621483751353525,-0.0969484370449711,0.00744258652200003,-0.248440163836944
0.0903859747615138,0.136093688796729,-0.0763984081640674,-0.0250464434863196,1.33732761947554,0.143138099498449,0.159627067641518,-0.265807691035243,-0.00303377187876203
0.19920862997752,0.122391715631918,-0.190252322698075,1.35921679908807,0.259548522859716,0.00715897255187148,-0.0677595650984424,-0.0291787629444071,-0.0965765157110421
-0.00176130116190443,0.738635062501352,-0.410546789707401,0.871010369522011,0.562917696009776,-0.206415822796648,-0.0825364987351387,-0.0962901685647486,-0.00802418588311343
-0.0830876090860997,0.272198124289833,-0.13255716156434,1.15607585988224,0.00238075228761536,0.907530150937646,-0.0407467732742837,-0.0458109823937178,0.334906337282141
-0.130618989476079,0.768708404955099,0.091934077716294,0.267167297300932,0.249494238481745,0.00550330822788769,-0.0454231384703085,0.627722048715864,-0.073249705715523
0.318541614486212,0.0694465424736777,0.0148369357423919,0.536530541837632,-0.124470087934422,1.56023067160325,-0.37470331736869,-0.169386670946465,0.115664575205174
-0.0131025024846103,-0.154639719159744,0.149735764332073,-0.00297620095213524,-0.0714323619566484,-0.20302436455422,0.0437264169390916,0.091867141014685,-0.0541860608997267
0.0993057495987202,0.119783695785492,-0.0878016265801972,0.00880285724304608,-0.0917150461131707,-0.0261181525870136,-0.0657181119319112,0.0520385462023008,0.1062060181115
-0.0344351733045341,0.481327201527417,-0.00357871254704012,-0.16685171128519,1.06606261033488,0.0542542143941418,-0.0983754725283705,0.136208032752005,0.075555630562536
-0.202963639414071,0.55465414773576,0.222959320734564,0.112315529752897,0.529371681634401,0.949888403896647,0.0303904353602089,0.0878096670090693,0.145996979229746
-0.0247207342217344,0.430300251940902,-0.133716899000514,0.188443130789757,0.699524362414695,-0.0286500291342329,-0.738187048195864,-0.209758823824281,-0.0743535652802428
-0.213512430526011,0.0711385882646516,0.0946161237818846,0.780283044881497,-0.18988825581826,-0.0739458673751621,-0.0252523766767014,0.282693299208438,1.22515309425172
-0.0665677500121845,-0.00736918329732328,-0.0930273445910936,0.068259821113216,-0.0384898753168592,0.0943295902557783,-0.0455579187883277,-0.0329183116302855,-0.149774218709748
-0.365531551821007,1.76319933310818,-0.214676322392781,0.255668310033404,0.326203574259171,0.210979445013243,-0.399803819563286,-0.0650636447983297,0.0965939224046863
0.0203829789275729,-0.21217383855036,-0.0988493404909025,0.117477524628587,1.54652546391449,-0.510205476632806,-0.049737270554723,-0.419098834208271,-0.0916011259691283
-0.0129068063078392,0.212794274882914,-0.275826035423937,0.346483808564299,1.32506208892989,-0.336578507948687,-0.123347349485073,-0.0840710828848774,0.0203623214286521
-0.081937308232555,0.26723194657812,-0.385387864302237,0.0374838562975235,-0.0175143432954217,0.244934588622777,0.0567897499672405,-0.146155334283628,0.218626497977294
-0.0161690722376928,0.088428090991199,-0.157505766219649,-0.146827638123161,0.981261546301071,-0.192375042812419,-0.026930870095159,-0.155325975221594,0.159457188091008
0.199780335621181,0.0380872343252419,-1.23140991581482,0.0863070636703132,0.131209641209446,-0.135378330337014,-0.823015586143398,0.0368030840301348,-0.115550333560579
0.136032014614882,0.211711657456593,-0.20044526286374,-0.0103879633220458,0.246728372329676,0.436279714567806,-0.113247267580543,0.947023829613654,0.137694172613462
-0.00822361666781468,0.0709969447646204,-0.0895034227004992,-0.0690341425492953,0.0995248040228733,0.87925763667292,0.117539251221941,0.0284358054188454,-0.155247996051424
0.0180400392359892,0.748872720791656,-0.0103013390570831,-0.118139865158555,0.449292673677695,0.517566600790415,0.0166607874772113,0.0469597253558911,-0.209199645136755
0.01969333025224,0.237307355125122,-0.0243761276002337,0.191238514522856,0.206627636879959,0.200762839139053,0.114959798665883,-0.0526917798182209,0.293038723165354
-0.216900807832807,-0.0311665437630095,0.0922070635965708,-0.2438231748872,1.2898819165002,-0.0293598642663992,-0.146786706211156,0.106361300009112,0.256496417499863
-0.0522974948556629,0.0595843554857911,-1.03455329392723,-0.0379722018127948,0.988007654789524,-0.269575157469593,-0.43700260827842,0.0219218120968234,0.452716738291289
0.0538440534003657,0.103621904453218,0.0293408503547248,0.025179939363456,-0.004181034378413,0.039586436706653,0.0656736746218165,0.0224315791400986,0.0502619053104665
0.0884190457420786,0.532927063580956,-0.391579021409645,-0.0911287717048528,0.719550425196514,-0.0282098148288643,-0.0117996826801958,0.256825611981678,-0.0531542064770545
-0.0996923052338943,0.650390417022706,0.018503397474138,-0.0312539084707639,0.104585757080174,0.806792084587762,0.00933113436471,-0.0687737739928806,-0.270071618974536
0.170957631577079,-0.0435866410968986,-0.200858857795441,1.1498463946052,0.126568185126075,0.662166462855478,-0.0640477817324099,-0.108567678834919,0.00719089849047316
-0.0408847899515621,0.0236069090689508,-0.0648628140924075,-0.00487950317409602,0.251286470181714,-0.0120146615628913,-1.25614895566515,-0.482254999614042,0.184553972174801
