0.0510411318526938,0.0815309729157834,-0.0644106100576112,0.227904159202889,-0.367775215188441,0.372632290193722,0.111981266938445,0.281797246324436,0.119442205953979
0.0176474957279745,0.00935945201368882,-1.26337819402563,0.012356184985361,0.0477285469478629,0.0387193023894263,0.0185351783782464,-0.000958630969005725,0.0359548817680174
0.0899990831753792,0.161393634571931,0.191347138419593,0.228800813356969,-0.136329179241635,0.112977035381819,0.084175374623519,0.348517574650565,0.621794409687613
0.0533401819163086,0.11020088795698,0.0977438291214447,0.0544800769217235,-0.0306602617265161,0.115310217993597,0.0309993929021886,-0.613220315919026,0.0909134967679908
0.124710369135004,-0.101954710261224,-1.33044769505031,-0.149905916138728,-0.212889065762752,0.202205465181672,0.154397752696238,-0.135177455845319,-0.151874900293366
0.154325406612008,-0.40524632192585,-0.0821117441899117,0.150454287135741,-0.269463200114002,0.0279307213666167,-0.158884321803484,0.0424186848278634,-0.0146597014557939
-0.0432205826309637,-0.159903359640633,-0.128104235286622,0.0542806983183066,-0.384949294555537,0.17348471592932,-0.0508934998106363,0.198458567545657,0.157866048879675
-0.0312262204991738,-0.0718104936230928,-0.00757401123191848,0.214008311746805,0.0207690888956122,0.578000882945531,-0.0246528497256886,0.593011950754477,0.055014940187756
0.179197916553652,-0.0300630526510908,-0.149006735409848,0.318623627766812,0.0514936725496851,0.454609004110046,-0.0388679708787869,0.585504062445342,-0.108865119575212
-0.0207138746402631,-0.00768533045784459,-0.228630149206678,0.191178471753691,-0.25641842174469,-0.00260122820601083,-0.116686673631599,0.546577333609311,0.0494964448656594
-0.151340452928836,0.131603254565444,-0.128311425590962,-0.139672536287785,-0.785110008216965,0.779347836520683,-0.036965293773326,0.10266548659578,0.174767659748779
-0.319508109291767,-0.0843941561909918,-0.0605097844817921,-0.126606238586958,-0.0357885037015482,0.00108151692388425,0.0205186229203775,0.0581932245277823,-0.0579289664068643
0.178385127734709,0.431739440139169,0.511516536373653,-0.444766193325332,0.181045799330234,0.131726153257065,-0.140427224548497,0.000633142034577538,1.45301845689793
0.149380520567111,-0.111771695762447,0.0679530660411611,-0.0816001517667626,-0.18671980937502,-0.0190409668047655,-0.105728209481949,-0.0395339174749312,-0.531093692878732
-0.011300438174052,-0.152406597525033,-0.480283020527312,0.0663954196635252,-0.103675548335473,0.00204886515897584,-0.135229404636068,-0.104062901567089,-0.210344552056531
0.143206414624457,0.037012747404679,0.0653166898784967,-0.0415781510000226,-0.267321161293137,0.0043106996483897,-0.0407016751877441,0.515487958602625,-0.0773162251989807
-0.105875557981471,-0.554983268745575,-0.261588919760986,0.12196436604681,-1.03595091861888,-0.196224572527293,0.0177883442143707,-0.20745899576765,-0.0446610229847004
0.0594833857336026,0.106061734818407,0.214835468483185,-0.0230440594054842,-0.0746921582378381,0.270717297661541,0.104036043301043,0.353003905885635,0.727424575945319
0.0976179332848046,0.0174962879232883,0.0806884578620188,0.346379685651125,-0.119967338120733,0.10196023735192,0.0210730464129547,1.18865257190579,0.416360906590927
-0.0103069058949679,-0.0931051164348373,0.0649612609230834,0.377849698207014,0.0675837990175303,0.185833283577706,0.180081083113874,0.642658884415713,0.134288453822258
0.097038331061805,0.108161449461221,-0.280606450109228,0.0591168337631453,-0.558253814801313,-0.00158176884822669,0.134716179929361,-0.0321174786120721,0.13673162341998
0.151166991199945,0.0768140934009951,-0.0492263585870027,0.116227613944841,-0.462774982131461,0.103291467298077,0.0563504422529508,0.288122701236386,0.0175435866350275
0.428311038513618,-0.0267043508589436,-0.004246565399737,0.038892117063468,0.0875136369115115,0.336362597628798,-0.0164759950698947,1.12720201812196,0.0228278669686617
-0.0245089903733249,-0.0658804497547401,0.0703085394706646,0.060130070642835,-0.113277732877231,-0.0787350672757874,-0.0266760719251866,0.0831436714468152,-0.0187926375516378
-0.0666504533373811,-0.0405094464388096,0.0440903796778587,0.119379246749325,0.0296932934123557,0.0907529843425383,0.121045283636809,0.241215425208397,0.103134731027804
0.0258007998317433,0.0280408646287345,0.0605282719107372,0.0914729360842106,-0.803479046671806,0.649066100274644,0.0488293418159556,-0.143673640440726,0.00868916461815861
-0.000583376334594377,0.254646696480885,-0.328914682988062,0.207660213681199,-0.56904476908616,0.308094777281285,0.144985326591079,0.277903691083068,0.680018210305951
-0.406216296221876,-0.352500601895957,-0.119561854664626,0.0881654662509437,-0.192732260298658,0.36332233822962,0.0478319666325628,-0.0923027239629032,-0.0702158362085685
0.0226296298807742,0.0601661936962881,0.118059560069771,-0.0525541482840914,0.0733167342535177,0.180095432257866,-0.0365137982376877,0.0627819528402522,0.642799484094583
-0.263663048685985,0.162451419213373,0.0543148657297063,0.00416625684949334,-0.40892546258706,0.387261884309574,0.125742392051141,-0.0124039283351109,-0.150074457559828
0.108765612162064,0.0701883312855215,0.266054791564462,0.121920421864833,-0.0750444812030653,0.0628954723008963,-0.0389285862556125,0.097016121733323,0.41128408219597
0.0461375272522258,0.0778369180273613,-0.261609924360074,-0.0635784662509993,-0.019189463806466,0.372962509477018,-0.208014117981555,-0.540315870680059,0.148862889829743
-0.0804692476424629,-0.578561430203671,-0.89423540320874,0.0535982038270637,0.160563675831114,0.0216904448071,-0.00475883428838486,0.0120540556421944,0.012053865110325
0.00655973320444225,-0.240117646978065,-0.127406183444362,0.0810088399782032,-0.842102392780147,0.108181812254461,-0.0022530869783699,0.144533770958041,-0.150684858785306
0.103944418298361,0.0721213803137161,0.0373535564443048,0.193919106708972,-0.0814028023505222,0.218739638464853,0.143742218793155,0.419582047325692,0.140034148718761
-0.0108937142406109,-0.0128341295384953,-0.000611626489326333,-0.023141411877015,0.0232926273973835,1.2704408454414,-0.00147309177680643,0.0323901005425045,-0.00516567951788804
0.00860113539612528,0.0480513073698304,-0.0458112167988984,0.0739371840912342,0.0360761434242427,0.314245701440332,0.0918999014908209,0.00334300445388325,0.124839799051949
-0.0803913929385809,-0.00433576941221769,-0.129443073850724,0.140344237538883,-0.325866745079775,0.0496811538553699,-0.0405786297173085,-0.757842033795115,0.205746444180782
-0.043862522254293,-0.229531256984107,-1.33083736178113,-0.273602405001889,-0.0364051482178351,0.238875365566932,-0.00903024508116346,-0.257860080318562,-0.0743061565120779
0.0369438039611421,-0.066112788546504,0.020249482876431,-0.0222590302098542,-0.190239421131404,0.0845970936738403,0.223964252418475,-0.0137385264405981,0.27540111642694
0.305801040304597,-0.114521069955843,0.180147975944343,0.0880568183991581,-0.461298995958149,0.684143601933737,0.139966695220568,-0.0943340192097772,0.0530991446051834
-0.380807530756924,0.0608241660475859,-0.164055584021056,0.319023586075788,-1.43343074585658,-0.314252032384876,0.0426196640282694,-0.0573853412499856,-0.376832032118489
-0.0351239553450063,0.0776580615514604,-0.0440231972028302,0.136159962075481,-0.342458397099165,0.0527182770178002,0.0264450347529583,0.413502923139272,0.0655988630718337
0.0605193424635324,-0.174136398992687,-0.18783335225834,-0.0959707764687856,-0.00311553632488604,0.0489402713902098,-0.541658618004266,-0.0452290696780002,0.44858289761876
0.362891190042678,-0.0230905338500547,0.347488609898742,0.0455881080533542,-0.107349293380596,0.354942379684245,-0.0399390350900699,1.30539743517229,-0.0883811587007077
-0.00866103168372945,-0.117684464564959,-0.141787786995747,0.23169950260623,-0.612474091578777,0.289236851243268,0.00797801622668715,0.0442834487042099,0.154994461845154
0.0170520200353392,-0.0789410742313703,0.0199414712537855,0.0997699428300063,0.0192674245878974,0.106027692548805,0.032173749482971,0.23867181673508,-0.0100380781046567
0.196462844956719,-0.419280095389563,-0.0758223317794071,0.188583067846187,-0.74750993433554,0.490135127018032,0.0463008671794753,-0.158353975179099,0.0715086662772064
0.00473540516767201,-0.0266635821646624,-1.26589645216414,0.0276456312280842,-0.0306846266011804,0.00309569489869688,-0.0142483548590207,-0.037466839158208,-0.0258780037557775
