-0.357369690863788,0.137772309969423,0.0237581860036746,0.698458941716892,-0.0129725349086414,0.144848821925019,0.263982689474519,0.210951281734824,0.034569681805551
0.00361397648556316,0.0246488251348929,-0.000196495220412984,-0.0088856072161807,-0.014030665914198,0.00920274053415815,1.2721344025744,0.00961903657610108,0.0147137937686121
-1.27065282256864,-0.028874446402277,0.0219833485047971,0.0222969748815682,-0.00616908250608716,-0.00652595559423652,-0.00268042792862921,-0.0147901213508348,-0.0132693652369049
-0.0140992005831002,-0.12151973966811,-0.0220242073712651,0.0583915324334381,0.0900904453695395,0.367339083061811,0.553386014302998,-0.0745307880820922,-0.0423100865846067
-0.040623729573352,-0.0397958415277928,0.246828816977619,0.159389853427444,0.171518069796755,0.751516883044463,0.273302332212128,-0.23622992014343,0.0287781446179434
-0.124905967306169,-0.272189419698325,0.256116870334196,0.30531957035173,0.0414069637894585,0.884162067585876,0.900314922611368,-0.125266587679622,0.176226711738827
-0.0222994579971623,0.0436829114832742,1.26585821819945,-0.0149576126645732,-0.032159991567104,0.0278431229371408,0.00136837640889098,0.000121991911917974,-0.0247759525857902
-0.546697623388066,-0.172536553272838,0.195932542698954,0.186547538059387,0.175172998290326,-0.0923097807648015,-0.109002674308663,0.0472374551196744,0.333581150651261
0.15147163367116,-0.0988351540923498,0.380051520015444,0.0169524230937694,0.0653265074063969,0.351635297242039,0.579574128751836,-0.0249986798469946,0.00140012696533232
-0.0537036896211316,-0.0896068391120792,0.486068444164134,-0.0273368134304114,0.0207792358593979,0.464990925801242,0.441324330322962,-0.165755845382627,0.320693007695865
-0.118371797618293,-0.0595481830764522,0.106599806052935,0.0590320991010094,0.0137645706079539,0.195843631488101,0.24579583688034,0.0895992929399565,0.124224433138634
-0.948138469980276,-0.066486278915221,0.092027517436696,0.108497682012708,0.0167593852445442,-0.0161480291584833,-0.0308066292034818,-0.0737370799478096,0.454676659731387
-0.0973463706626196,-0.070135754387719,0.829554467445663,-0.0121927272607318,-0.0647712540162526,-0.0102580589259764,0.265102593266408,-0.0679645267769772,0.0847073889406789
-0.0141960268692847,-0.044334618464088,0.358357037192267,-0.0578994214428485,-0.110886180453963,0.662031757140166,0.908390365170357,-0.0941162804090467,0.190499529254923
-0.935326805989323,-0.424350148859292,0.0201567096247626,0.257897412319854,0.0873844784527407,-0.00499559629151092,-0.0395896316308084,-0.256496054320291,-0.257420342006073
-1.27063417851538,-0.028849889588126,0.0219584344420427,0.0222975979193754,-0.00614821445757252,-0.0065057412682199,-0.00266281777752031,-0.0148094461611867,-0.0132922872794889
0.0610583437060681,0.0964195864095352,-0.172058180682117,0.0104264786714259,-0.350192654539129,0.314788482037723,1.28169217842399,0.0924174150503791,-0.363215837042248
-0.451324593971526,-0.0354829610974496,-0.370769459089605,-0.235091335743282,0.0357232952756743,-0.236628260997954,0.966045520177918,0.10750860199732,0.0328535457576642
-0.0588413112706458,-0.396138431660656,1.20580308276209,-0.0348886767684373,0.128835034252103,0.0760816038658882,0.433735161762686,-0.100869803345334,0.151193100252165
-0.161945185012291,-0.0145649463487914,0.241956525468719,0.179821897332527,-0.180215902198599,1.0000209139129,0.579756470108364,0.0631832900473732,0.0974715585973995
-0.0836823656184524,0.0359582620921666,0.0223623547990881,-0.0255895299705795,0.0371137652624287,0.650618702145099,-0.0239937231264893,-0.121975079009939,0.34707503016959
-0.254123373744535,0.0299244468467734,0.247432789885766,0.0535614786789012,-0.0461798872595569,0.170259175509998,0.194358595461447,0.0147593506755737,0.0240142078119341
-0.709827259920788,0.00668961256343009,0.221526561201622,0.0962815260398333,-0.17152204719302,-0.0240111052920282,0.128675918971735,-0.210576434084482,0.0565924547908443
-0.214929232668997,-0.0884012657294759,0.204160729266157,0.0716353735254538,-0.131027000782975,0.711208878991345,0.432613979217719,-0.211290683476697,0.276236707402876
0.189032892089585,-0.111312795250991,0.016650526045316,0.121107158935915,0.0624862911942747,-0.058604823515922,0.707344074959632,0.0336861455438173,0.428229750537686
-0.0654727614189259,0.0880829802058063,0.357612550124024,0.0308731572584264,0.100618629870022,0.535477073020147,0.334637403974228,-0.0890743227221629,0.00307592250939681
-0.111994710047917,0.0333564998426228,0.061293734428328,0.021390201992503,0.105359427840517,0.447800278772663,0.206706232284788,0.158762720993906,-0.0515866540911842
0.00364249539737838,0.0246338010168063,-0.00015701636225085,-0.00885316254792878,-0.0140062193563595,0.00921069820489162,1.27210981059248,0.0095806907151168,0.0147004307823728
-0.68147782918935,-0.0840551622057211,0.217768403842673,0.0612142109102987,-0.0218849883576375,0.00188773710497436,0.266722176919377,-0.261245550879142,0.284119363279849
0.108924463229664,-0.393985039207933,0.155255832602504,-0.139899663919082,0.122110778021431,0.451627004800917,0.734500297024212,-0.0265362081395466,0.217985515820345
0.114816292016076,-0.0764665133767474,0.870897412237205,-0.100214667233814,0.111535607441353,0.166986070618687,0.260096189614084,-0.0969726753747198,-0.00144885717646925
-0.464875285064944,0.00521044617466604,0.153437119020493,0.0886806884392592,-0.240357072529569,0.661894154523458,0.554227719140892,-0.0491232004339327,0.0525738716746062
0.244815405906681,0.127040355511769,1.26022323687345,0.0798140389926254,-0.136248615691086,0.0745221078963194,0.00758372932554385,-0.379056060231476,0.339142978142667
0.00233715212254104,0.0490879733772385,-0.0682497441543215,0.0343327455156945,-0.142234644401197,0.417885480764585,1.01161881115279,0.01271791829351,-0.0029318080145746
-0.535234145422542,-0.22829750144326,0.101298392509729,0.0082116358158526,0.245005031953059,0.328968549540299,0.2757578967202,-0.348539927401207,0.0336859680002908
-0.231585606356403,0.028241357475185,-0.647290864435121,0.239992329841971,-0.215019231464408,0.198189729179715,-0.195032506426535,-1.20692692533564,-0.34076754746702
0.0938322945879912,-0.0310136735757478,0.1013969395161,0.130199483423841,0.0716367968218545,0.649225564870599,0.878711859947014,0.00720802390229736,0.154757912068254
-0.319939584959858,0.107717501640976,0.153836736256792,-0.0294585771958884,-0.310200954031077,0.899609937585986,0.167659636374062,0.0255881953442363,0.112558431477937
-0.0455928036309011,-0.1318999844989,0.151488382320593,0.328665027526035,0.00779729407024909,0.0479090299737708,0.353169563273307,-0.0246884042091878,-0.00306704163084648
-0.51969809192217,-0.127558407416717,-0.319078259670118,-0.142109398207111,-0.0478353094939323,0.00446223428805759,1.04815972813588,0.0522442672544328,-0.0414934314153115
-0.154924388248937,-0.0801297518384416,0.710846930772087,0.184042590832975,0.0900192868569096,-0.184325012897876,0.13192084708958,-0.0441971469557183,0.202622106370855
-0.0137945671072779,-0.118937683525638,0.342814801434852,0.177168892110838,-0.186109733384201,0.780060925647458,0.806703823546641,-0.0974960656798087,0.146114335188351
-0.0914848087551574,-0.153915012041542,0.101364715661599,-0.0826164242002994,0.482791937314277,0.0252813145290655,-0.075362601504846,-0.221258705863716,0.802621767392885
-0.0527236784057822,-0.115176947017268,0.0774065897105853,0.257650810912399,0.0771203412211579,-0.0114039708882343,0.498263808937725,-0.139574981583312,0.58007724307896
-0.18403022242039,-0.0487510489167251,-0.162648269458801,-0.104169304662192,0.0653905227703029,-0.128680209052923,0.705551596919417,0.146070425034468,-0.157749675160831
-0.15682858099683,-0.0293294814078111,0.310490835023028,0.193034739088612,0.0811680820906462,0.812467096872735,0.307552681921395,0.0696784194368282,-0.00657165708032759
-0.0334745226166158,-0.0556318354548475,-0.0639666820132145,0.0166223402292571,-0.0879022166657171,-0.106617336350566,0.971253861133151,0.0236129269256984,0.491426276849757
0.132436972567303,-0.0554555143513156,0.680166266046417,-0.0512062266377873,-0.0527584492564666,0.324869076779698,0.297463972420395,-0.119803539017292,0.241173143554242
-0.151793646136099,-0.0361522050897713,0.228678832026163,0.0420111757855892,-0.0221444508149746,0.293228615560873,0.433170441887191,-0.0635698058074742,0.150324227909866
0.112663277473879,-0.0293112571452632,0.0631951560684385,-0.0565977889591158,-0.0854229221842733,0.0541553495879423,0.95220145393715,0.11920205897736,-0.0737801404613005
-1.49479328500456,0.291566194536649,0.218020958536143,0.164193605508784,-0.0750981775710429,0.281419219495104,-0.275477869135586,-0.318535230509944,-0.0661373760038497
-0.13515308009577,-0.0120524086350527,0.0957714517282788,-0.0878637870647725,0.0708008475015562,0.132376494861554,0.0714015542561519,-0.0420546679489162,0.0507634627889155
-0.28097017114102,0.146269558477335,-0.125174305599292,0.0909426521964986,-0.0861173556043308,0.369963019737885,0.343381064370631,-0.0428815387400201,0.576326364696853
-0.124739803567923,-0.0389017916844292,0.952464624347064,-0.145867139288092,-0.037435068391384,0.21993770186709,0.19366267264103,-0.0941639218996135,0.163560905198674
0.0184913657294699,-0.192133264859073,0.196837252647653,0.0744315396177937,0.41693740106026,0.00498042725527892,1.10131844821863,-0.0867236400561069,0.109914694202331
-0.231646306424799,0.0370205781152313,0.0148983649500645,0.208109983123215,-0.0622938696908653,0.669319666805849,0.580678254300024,-0.0804469346547532,0.0196252262972766
-0.0795691741861719,-0.212471068747145,-0.0288407194847193,0.0436326087063903,0.597811693532227,-0.0357452812260961,-0.0748446668184721,-0.0923784709127213,0.609186623567213
-0.0733300881854824,0.0340755985533381,0.0796414536703853,0.361701659045602,-0.0464967745405982,-0.0279960760126645,0.137250728866908,-0.0935522211619544,0.409110827634056
-0.164393432856984,-0.0846450220802586,0.0914440149279936,-0.446433023898945,-0.0323444289852901,-0.460031174371466,1.48029939467328,-0.40109380477437,0.304191453502099
-0.0518286943951911,-0.0283550024489134,-0.0827834822719122,0.0938814909990617,-0.0740454796629866,0.218250005435475,0.862359530872547,0.0708257916207755,0.052818209042613
-0.204945792217899,-0.199035946717804,0.218356804828998,0.137255379179855,-0.145714183682883,1.00134125914327,0.322967194216856,-0.0855698078423841,0.394945645734744
0.0197937879457546,-0.106668929550866,0.257328515439317,0.327725046299743,0.114611201234535,0.43985742926327,0.856072109341557,0.227515269057324,-0.00389299695648279
-0.189030777184058,0.237292423662634,0.317496904445743,-0.0106532598285232,-0.112731090693941,0.172388349243791,0.858743530224173,-0.0484194880084248,0.246051161270732
-0.179835439963567,-0.0967706020627324,-0.136235983643117,0.110301488195052,-0.12285634910928,0.316854829684569,0.589853609101365,-0.0117271120949152,-0.0988034584322346
0.0302291725288928,0.0617569349491278,1.06890813238816,0.0324870384049234,0.401398440545998,0.80920199191665,0.0858170703004228,-0.195136167363434,0.353641089656485
-0.0807081982957896,-0.0851053920193219,0.747425833649636,0.0279701588667272,0.0623575791797961,-0.0270799789175413,0.292590427270264,-0.0205483413622201,0.223182361179609
0.0300319072229842,-0.0851518541606526,0.580383089434571,0.0730494424740117,0.104917118291083,0.338576756913153,0.285401403497932,-0.101722650911557,0.0179901626614915
-0.153999943346611,0.0293190463182302,0.109888464656745,-0.0589560221410008,-0.0225324237969065,0.549324582319668,0.319099043719477,0.0113097012885568,0.0485345299954769
-0.173667901465397,-0.0128011386605813,0.193577412921075,0.219174461739025,0.0615613427193162,0.0405053845413352,0.0672719193392943,-0.121295690592778,0.032923566794842
-0.00348882923026128,-0.0436388885066794,0.120666983254983,-0.114041937706487,-0.12914343142323,0.460816670341214,0.324843143276668,-0.0565451828586188,0.128148498993095
0.516162897230229,-0.038770467346934,0.533348651211401,0.11244070773736,0.126323365063305,-0.0895266009836266,1.19291943125357,-0.00937536821134355,0.067946097209135
0.0113768656281721,0.0721554205098833,0.0527695004420758,-0.0559923576788419,0.0624459425921833,0.0809193092771228,0.0718585496341806,0.0499885748576778,0.0484361874513439
-0.600198541572525,-0.0608257580509548,0.0769124069139115,-0.0577447255524643,-0.0301859912437141,0.605373955494992,0.768148140906369,-0.0686691372095689,0.031370472053097
0.00364354169529868,0.0246449780303797,-0.000208902157170954,-0.00888804115173603,-0.0139861709844213,0.00920797240552762,1.27207795694525,0.00957262019646077,0.0146943037470388
-0.206637985735298,-0.00624490825778956,0.104769152243795,-0.0114355843012,0.333620657190369,0.0923219903421508,0.0782833252956028,-0.0923108784215279,0.0833663654182503
-0.309042847829725,0.299288189762875,-0.0941397510572548,-0.0717575017227228,0.243811150382211,0.00686912093440473,0.00100595100974088,0.0339756441293826,1.24036311640538
-0.460201818731642,-0.00129632891692388,-0.462705273521524,-0.287147909280563,-0.127673148072802,-0.0751936355869587,1.22156381206646,0.118989433348181,0.0362883788705108
-0.0712304327430688,0.0341215648590572,0.219022647874047,0.0684786737249645,-0.0579615908114137,0.385575055838423,0.31155141070716,0.0356231530070605,-0.048927615553402
-0.0135482985153189,-0.0223333112899322,0.340209101873368,0.160743273332816,0.119807801699038,0.171733833662184,0.213524357514624,0.0383174871340157,0.305240892864272
0.147559778068103,-0.0956688555428582,0.844830928321186,0.0284439055957768,0.0781761216677359,0.471609699010079,0.817320516143402,-0.0568041912944066,-0.114290870569541
-0.104752562386393,-0.177294440633643,0.850468410698417,0.118632921579759,0.234970708438867,-0.0509649119249203,0.0330422779223356,-0.0212708523465617,0.75169355151238
-0.100748779487733,0.0184723767635621,-0.142488099506908,0.205713560696802,-0.0427516244656994,0.0576386843487529,0.219264720245423,0.00898195259052158,0.483373576939647
-0.135895768354569,-0.18566588456779,0.37996407176237,0.0231269904056983,0.0959518626086302,0.320952805923302,0.349597308807104,0.0664512353380307,0.0607573135788755
-0.0686640919635479,0.0510130045057853,0.0905453604703919,0.299886425195417,0.233158712212507,0.228379022791807,0.0596094226164574,-0.155957736607453,0.544043918454723
0.226333640211145,0.0939167025115126,-0.159867850115217,0.011534850530837,-0.27067735399724,-0.128811097573795,0.623496697408085,0.0726799276522438,0.00592056401977592
-0.153936677298055,-0.135349490686032,0.855124303024811,0.182417551141494,0.16909963200025,-0.0106391779029232,0.0542815888228074,0.0462625025081621,0.705512716555276
0.0883438566778194,-0.00369312013890077,0.0749036723839218,0.2728830420646,0.0457420855971149,0.594771476356139,0.28273278529158,-0.111157998759035,-0.00316108780455338
0.0543241395685354,-0.130587250616865,0.474125521855344,-0.111096511700222,-0.0171732328748009,0.13408271944358,0.350143897017695,0.178521604480704,0.129394350606264
0.0218804108516784,0.00211525956888714,-0.0409064666071237,-0.0630644172765731,-0.0510409065872999,0.182361423768324,0.767389351739839,-0.14763728526636,-0.0440773068447688
-0.048357258905515,0.100699428069913,0.107727203734278,0.0325617154733822,0.1352447582826,0.353089773372012,0.348621807163987,-0.132565467915962,0.394894348439339
-0.129505952492918,0.0490611292042038,0.0476654292794363,-0.0549622280106901,0.295116350990266,0.403952272951352,0.105024025456133,-0.228182100056892,0.0686051415096314
-0.410187795257419,-0.137131785891697,0.162539658821928,0.22964222219288,0.0577356302258769,0.680288921389257,1.11174420277884,-0.201538893746489,0.00902985211582141
-0.00972098837992563,-0.000128964356551853,0.394578977837132,0.125291086065507,-0.0762007125438657,1.04740782309247,0.543207000145715,-0.0926586344173871,0.206128501395083
-0.0268487003532831,-0.0332884311038146,0.10917867529388,0.122427773038061,-0.0428127222755101,0.339725720433592,0.274365574603734,-0.0306456236900639,0.576654951359377
0.0782297351776213,0.0195833422764586,-0.0313041980762909,0.0592235156486502,-0.0661256909524335,0.369244385084128,0.594964437175614,-0.0154887682404254,0.0474953635509863
0.00610773286446342,-0.0452258562744641,0.0273201238056933,0.0513444912018208,-0.0298829959256675,0.527885010010867,0.941595041662447,-0.0622793665212074,0.0330973875854426
-1.27064480690665,-0.0288744107599128,0.0219652560532095,0.022301119141936,-0.00612335292460831,-0.00648277833313671,-0.00267282026321602,-0.014846400837405,-0.0132479006004163
-0.0193117232667168,-0.0959427634247088,0.105495960563874,0.455467784998467,-0.0153602574800455,0.0179844194017162,0.104039142044212,-0.156391054238987,0.599226285020962
-0.193826080831919,-0.0638245470193715,0.194559052069943,0.00866304340751123,0.179590355609334,0.0983623036518786,0.149724362561278,-0.185150447160766,0.471127676644884
-0.205348871975124,0.0309820318185396,0.107019664175606,0.247963895982791,0.0298692420566748,0.292992975525836,-0.0106044534090701,-0.137749963549068,0.587651381791132
-0.0723922284922853,0.00964312330491968,-0.148785899718317,-0.0701580998630693,-0.229833176238861,0.106122491988607,0.844344740997716,0.0493513081466914,-0.00260384179946871
-0.386948743630336,0.0786643225350971,0.0405575465915886,-0.0753847587684913,0.0036495499108633,-0.123846942907551,0.330464277315114,0.111593966607771,0.0411903577329999
-0.348974412469744,-0.0827708735349271,0.0363455732981546,0.073759243166255,0.138487166171124,0.331190606407302,0.907210757083364,-0.0509004993123607,0.315548129367679
0.040002899504767,0.147028940226413,-0.108440219196038,-0.0503783460696745,-0.181553492308351,0.442560692436955,1.00982740574935,-0.0572404653728336,0.03372414651914
-0.304092455770647,-0.0542563439598815,-0.00621644978219837,0.858852530539088,0.0237708869227307,0.0317951382545034,-0.0659381608445626,-0.169648682721031,0.758663764774475
0.188758845016503,0.17099179914834,-0.00577377055892647,0.138780587593205,-0.135182175817139,0.063438680951956,0.906864650504795,0.078408900345496,-0.0717815337014594
-0.155561952308839,-0.167052523983031,1.12482950807645,0.00482058402561414,0.0313280432792252,0.167303074266555,0.494006843308163,-0.180301175712702,0.227772949857324
-0.240134847307058,-0.107669094335857,0.200516830421815,0.208565662967793,0.115403069944139,0.489298342574648,0.453364942334852,-0.149986870399982,0.0844511436775326
-0.132517321926992,-0.049979328110183,0.13733643178359,0.0762609272209551,-0.0788230496534976,0.916960284623088,0.666339282825758,-0.0450891318128344,0.273856980967986
-0.12651338166725,0.104838844510796,0.0475380506525882,0.0699154891246065,-0.0664574739775805,0.355019467247703,0.553808196709104,0.0490063617768435,-0.133771005577336
-0.140611075262599,-0.128398943392026,0.246034679135699,0.376886414528157,0.315796974838514,0.0347031119569294,0.153860097667336,-0.183716866656823,0.00612084329105134
-0.0645088548647839,0.110467250295031,0.228261321843763,-0.0299586256664455,-0.0716897655141557,0.78137069717125,0.730254817363714,0.00678341743697786,-0.067371727063601
-0.935646199419639,0.0213182100133213,0.141648708985807,0.223889722757026,0.179165718447893,0.240567457838772,0.317552642712777,-0.167368031164093,0.180635778407706
-0.87254436879288,-0.0663044199863148,0.0412396265183244,0.176829640346744,-0.14901974043355,0.0137519978292068,-0.0786568916102543,0.0269381105938374,0.559730588537033
-0.120236022908574,0.0450158802583571,0.17907361060908,-0.0346024584901992,0.0413934201801043,0.0524887481732064,0.333532569035114,-0.0147708757851728,0.124045220975075
-0.0986673722790492,-0.0615416872159562,0.166776340128926,0.0121299548723766,0.0503703088466194,0.333195330068143,-0.123099226853933,-0.0688237465256458,0.597659332761576
-0.215772901577788,-0.20384291413192,0.278617588550817,0.0770025344965297,0.268198920921003,0.140253519315284,-0.0589541746671671,-0.141061896573125,0.537868393751089
-0.371668705689712,-0.0437648878005121,-0.0170640753250701,0.0351623955340914,-0.136609899399155,0.335366521376893,0.672939559612443,0.0523532323625409,-0.0426749205811756
-1.05064650193418,0.0504071226190002,-0.102697121695543,-0.0149283882620699,-0.0764880046880645,-0.032894098673995,0.401978328437901,-0.205398052924003,0.137850457989415
0.0584881390696976,0.0139799574450405,0.0478905537064662,0.063321153791466,-0.0435211172620606,0.409349526028527,0.583606338167192,0.130654847195911,0.154123291253526
-0.0649293451832302,-0.0752702369073635,-0.351908344789214,0.0784377860576756,-0.186847349571446,1.20780317387516,0.414605385138773,0.144063294270694,0.0598324240093193
-0.0720112394467902,-0.0167518377718014,-0.108422918510535,-0.0084365398208921,0.0367863831642339,0.924333440931822,-0.049699393166633,-0.194155029578521,0.194440746500307
-0.016225606624036,-0.136219377805897,0.866602797337099,0.113519306035466,0.179879757918855,0.057904832812965,0.0956372244952162,0.0478405030380538,0.666164377043267
-0.0486666824007318,0.0325993775306403,-0.0990242982717762,-0.0216806661253468,-0.179777911718375,0.194333563736362,0.876004443878511,-0.0370380605555511,0.0672407419488337
0.0472111127317598,-0.0174102397845108,-0.17663913806599,0.0681366902279619,-0.354085957438831,0.328414709938071,1.29014474382839,0.34118158663092,-0.095950680052324
-0.105193266880699,-0.0839470604044217,0.0537108442593555,0.106507929568043,-0.0481027515798296,0.476267773647467,1.03991561941441,0.230068862803066,0.0260996221627776
-0.16073255687412,-0.0209504120281219,-0.071913010538615,0.465427927120828,0.136571968861557,-0.00406258486288289,0.0624203642770967,-0.144228348895013,0.455913491037851
0.0405973535240554,-0.285666920900552,0.921819016553769,-0.0845228696631004,0.207198434927974,-0.083851224723813,0.246623549092497,-0.111703474003366,0.326523206714246
0.0318107791427389,0.0827277237108959,-0.0170960627550629,0.105041911079554,0.0561345688168835,-0.0665075506004964,0.46367541223381,0.028804428032724,0.361161036078838
-0.115361333034135,-0.0293845752426867,0.422698221092282,0.0931464702775742,0.370646482595156,0.334148363735498,0.0822138416512909,-0.0931452645583315,0.184595430184235
-0.0320468576617467,0.138331460249268,0.0601086212750115,-0.0160203053957514,-0.0550245875336384,0.530212142423323,0.0520776034143596,-0.0451627530058046,0.60668504891996
-0.152948200865282,-0.16367440231247,0.133783313366667,0.0971185180383456,0.206489315453068,0.165645838452359,0.00104236438464156,-0.23565656099193,0.153990539539256
0.0543286425479327,-0.106516542334631,-0.24631373412073,0.0164092341286044,0.0233338909150232,0.317491515419718,0.945552506397059,-0.0281430244384167,0.254240103135749
-1.1505991327915,-0.0368354978651864,-0.310824420771454,-0.0614895110281468,-0.0180281489573844,0.0731114125043888,0.318595984422197,-0.122203362577375,0.0384613420128916
-0.833581191863684,-0.152182127051856,0.23942948316347,0.392347125977734,0.113555147849031,-0.244957679995624,0.0177900048774351,-0.169107118195052,0.0460689087960566
-0.015042281044483,0.00193757088744206,0.000113723689203482,0.010684182393851,-0.0267806532159893,-0.0105847496094249,-0.00930125664425763,-1.26978558594318,-0.0341620307626718
-1.27062687840711,-0.0288652120222155,0.0219599139731441,0.0222932017308182,-0.00616559582999709,-0.00651907338228241,-0.0026743260924329,-0.0148274680465059,-0.0132663051444784
-1.27059501565136,-0.0288497147477638,0.0219572528396679,0.0222921621240277,-0.0061675959178924,-0.00652263934546227,-0.00263190650356027,-0.0148275700566058,-0.0132787768421716
-0.0781314941667253,-0.0207677703783355,0.715054603453199,0.0463061868987751,0.0432034033924946,0.360534471067514,0.470722111801946,0.0682153836078356,0.040345167390643
-0.0316523261366357,-0.175393898449067,0.829390905120148,0.0523805141505438,0.156254694953501,0.0156374849472787,0.396477007009009,-0.174554193209533,0.138607031332519
-0.0086041442288608,-0.0638800641802313,-0.0169515001971663,0.538279573344105,0.0935383842483442,0.0880654393972685,-0.025584592863426,0.0538850671370524,0.597602182838031
0.266734968940229,-0.365004878378976,0.613461332446654,-0.123496194151211,0.725883740010814,0.312717623291385,1.56929405024498,-0.090222167947779,0.104570874782431
-0.319112579742765,-0.294138319932673,0.934318766027985,0.119817204438993,-0.0349424862192679,-0.0504800803100522,0.260544757714234,0.00254476292753836,0.02677359187735
-0.0287789777205327,0.162555210601456,0.0269004606406638,0.159251000846131,-0.187853570594206,0.499343176109861,0.60125306559725,0.0217749764916046,0.338319060888116
0.237679189864676,0.022073548024518,0.215294902277513,-0.00423913443406221,-0.0374706596259173,0.0639785481892901,0.882241200382364,-0.0821402121959363,0.0426688354915701
-1.27064663567195,-0.0288745484940858,0.0219865304872009,0.0223034273004412,-0.00616596047522577,-0.00653410870608084,-0.00266558821397744,-0.0148230186017644,-0.0132803743117904
0.0679431316842805,0.0015876379959231,0.628941934986374,0.155279405879925,0.0135161823774155,0.0410500974742861,0.27200237568224,0.0740937277552414,0.126337775968143
-0.162089192104312,-0.00572987464732932,0.157320933190025,-0.0592061283080625,0.217967661469837,0.509876963788489,0.49099816055076,0.117234951090465,0.135538933887822
-0.00628282310798456,0.0357156243171319,0.00640672854870594,-0.0119768988686602,-0.128420705010616,0.375025088194594,0.510865472278203,0.00891049902742402,0.724204383769736
0.0641535277635839,0.0387127937467855,0.203392880292399,0.167675373157305,0.276188939891496,0.777450815116475,0.930686160353304,-0.105726722502248,0.275626443382596
0.00365778426129237,0.0246473779844862,-0.000195187465679147,-0.00887023009032806,-0.014009485193855,0.00920462086783336,1.27205893694553,0.00960753567303207,0.0146906544569605
-0.190830793408688,-0.0518927831088289,0.0418147043981807,-0.0147615002832976,0.0523707284506243,0.456335245324197,1.00378319887971,0.10552045537168,-0.0270512896564044
-1.15048602112121,-0.00708917572605117,-0.286853895685953,-0.00466422475303219,0.0251115427146962,0.00114518963038623,0.301413333839299,-0.0251867238173045,-0.062268063463069
0.0751201816226597,-0.0568670709819172,0.174355119626222,0.0298551236275884,0.0813993425437225,0.538979092431055,0.64779107907202,0.132038471548749,0.150757714150641
-0.179158854996545,-0.121082344873947,0.0832373258920054,-0.0311791625286215,-0.114576638024389,0.0798196617024294,0.595127929856318,0.0409931696090071,0.00253324001956065
0.0675901213842138,-0.131040998285767,0.962042170899961,-0.060206917608804,0.0673490230306176,-0.0658834546406866,0.120201387892207,-0.0366957011981004,0.540778384836103
-0.214342895262742,-0.0600514650784469,-0.27536019399644,-0.213520903891673,-0.128694574542743,0.261607600582434,1.46268662520969,-0.110953769509516,-0.239664106669605
0.261380956066103,-0.0363701948758166,0.194462876666923,-0.0527997778762135,0.103441832910542,-0.234215849441194,1.05278478373929,-0.266796039476697,0.290579681737024
-0.20437300245769,0.247705744160196,1.20859132298971,-0.457700231088235,0.0428892674057719,0.426659907196378,-0.00568800340033704,0.0319687636181047,-0.103998311286564
-1.27060376494705,-0.0288741011987779,0.0219826745920972,0.0222996864381626,-0.00616099089988875,-0.00652161664953033,-0.00267933657251174,-0.0148220970374098,-0.0132857132988033
-0.0834988310755032,0.0837184900859294,-0.15498628288879,0.0317365128067308,-0.241427202204711,0.258860103368135,0.893985587107538,-0.0765515527655358,0.00975335401881416
-0.447046902946981,0.127052680003227,0.0332106624752493,-0.0952201909915624,-0.210853709271333,0.0512211641020333,0.06920128682839,-0.288612756227207,0.177172460173967
0.111998724468829,-0.0477952937030848,0.143298610870595,0.119932016234839,-0.0369092227650061,0.457185402341,0.65266342027175,0.0268102964300798,-0.00932378948477819
-0.488643988471718,0.0632740458528931,-0.198515938504869,-0.331134458747608,-0.059628207687741,-0.224620896397909,1.36669699316545,0.0763659485892866,0.480793499602048
-0.243357474424923,0.00120434529736979,0.38187816467518,-0.110604846010173,-0.0646798737575951,0.301361799716296,0.389722770252986,-0.190881834120608,0.030462622089793
-0.144946765412231,-0.215009589257697,0.347780237602684,0.284114203406702,0.114278528602321,0.196094579744137,0.305596170178639,-0.180613619625859,0.269311113035744
-0.15303535087228,0.0603755260795449,0.189494978125783,0.0734978415470042,0.314428034318254,0.107004852571648,0.0593735225080465,-0.0546069909792211,0.608243713338002
0.0489265730478987,-0.048698552154149,-0.16438759727242,0.208430511612632,-0.128123363806461,0.0687099944541707,0.722835185874419,0.00174213245581445,0.808245603699843
-0.206797642058622,0.0388428735124648,0.231295432767488,-0.263290476777071,-0.0630970210251602,0.13137720759926,0.10439993773783,-0.192123667787316,0.0672735992733653
0.0251930204405779,0.0692020056342351,-0.111184718666433,0.0198867077945808,-0.196940144176456,0.145765225908098,0.945922523806118,0.197046536571394,-0.185036949089914
-0.229902151335819,-0.0370201326225912,0.397584143943264,0.0389959058609044,-0.0247518863962091,0.827494663227247,0.866665724684189,-0.142457306508749,0.117307935035817
-0.110047509224442,0.0764840313349242,0.12988314854251,0.129345306847621,0.138636352548132,0.269836187406447,0.153062532400939,-0.0608836822188165,0.138945823625897
-0.931871763801523,-0.157116294131858,-0.219558389986101,-0.239917099789985,0.199581523156144,-0.208143176132028,0.882881434687596,0.0409391142102846,0.0913895976039538
-0.211153410667045,-0.103963576216477,0.19139477111278,-0.0164610254008712,0.175920107907069,0.208265185468603,0.76638767659648,-0.0185253834219443,0.121043818867168
0.00368389160210914,0.024653820743894,-0.000175754369125869,-0.0088751849068256,-0.0140245047156098,0.00921081044213956,1.27203673199879,0.00962904855468416,0.0147102565143333
-0.0998992506374075,0.0518514275683755,0.136662023472228,0.0376586674302626,0.154375849666466,0.634764014292648,0.617552025211381,-0.203735812238159,0.189570368705446
0.0188356049637353,0.0976654003143151,0.0174490143464858,0.292106566852244,-0.203471128242115,0.062601035162305,0.510396373272213,-0.0205453969165994,0.713535599840668
-0.0997162373277511,-0.0642049117098715,0.21217111806838,0.0722304426908664,0.087217687545337,0.371502421800431,0.458224845466848,-0.20844768748637,0.169006865389742
-0.274029990792938,-0.0177651775669308,0.0309778460032498,0.56914850574038,0.0137358383384685,-0.0104355283627076,0.045220081420426,0.0234479464059429,0.966787336074379
-0.145912607504883,-1.29154180651944,0.0444724051496985,-0.413997356787694,0.319583106577294,0.0172473187591757,0.367705352677929,0.073472486401205,-0.0591712698061393
-0.411904247659317,0.102442405913985,-0.039502397345986,-0.371889202842891,0.0245190237317914,0.0786803790721402,0.820151961778505,-0.518114022850149,-0.0646091960352724
0.0489454958387334,0.0936649553116595,0.0517874717017941,0.0643573723099564,-0.0668151728207196,0.365835360156484,1.0539943017974,0.0842761398527578,0.0927703523755632
0.0937496742913759,0.0383024286991418,0.135460301521893,0.109553069776176,0.117778326709316,0.572690974299888,0.617330093613814,0.0545963894407375,0.121199997642537
-0.883276452503065,-0.0640672702440429,-0.0667555249229663,-0.105797984589555,0.134446896166987,0.171124892832488,0.600256651700558,-0.128202130721751,0.11103746252985
0.0525659225568749,0.0739862228373571,-0.0167984185267294,0.0648632811070478,-0.0663560477032981,0.451139128260844,0.989023628950941,0.0673998082051543,-0.0558790769041599
-0.206910082875276,-0.00803592805387776,0.730320511289489,0.0936425049565828,0.0406291607318184,-0.0395758284800314,-0.0677357667767051,-0.0130950662102274,0.783972823905845
0.0115652084174531,-0.014266927965112,-0.0227749808676578,0.0205230850560376,-0.00967075123355965,-0.000447483755606548,0.0135390907516282,0.0326788358474981,1.26842217714942
-0.872635566492384,0.00953410756217621,-0.0261078325839921,-0.00871448204798941,-0.0474649685797195,0.0947362464248966,0.0281580824380092,-0.583399285717315,0.0649001578011716
-0.0665786932902304,-0.243171062016035,0.0426450746698996,0.173042883489014,0.0232528665769713,0.240580598176444,0.373133147102922,-0.144622126996233,0.872645465850847
-0.00162523383464785,0.223874254745578,0.115658841814606,-0.055368075739032,-0.174020239230916,0.00952428045119502,0.930158007341731,-0.11552107969114,0.0517976369424575
-0.971866319514876,-0.102615899822825,0.174926322517928,0.116398530321092,0.0192069435274425,0.056813437130204,0.0814491616292781,-0.0993135064923614,0.451686199353082
-0.612396736101768,-0.0517783698768928,0.199847098881925,-0.066495187327722,0.132691265360366,0.064317882786229,0.257525444094545,-0.196018746043279,0.0761823513718261
0.0447773668628448,0.123883898288472,0.0122232572476606,0.0201602989798202,-0.0840229163648569,0.586815115425356,0.282558696780793,-0.0191484757450573,0.577622683013614
-0.500310315453658,0.157009400440812,0.246821842402755,-0.103851445054036,0.0687320710646651,0.133673979689967,0.0236529813553684,0.0106512196276256,-0.081845245288512
-0.98321471700172,-0.22086851807214,0.219201340741781,-0.0428213627678069,0.523111565594491,-0.0505363138416444,0.0828359456318264,-0.132897633709513,0.0813408667976097
-0.0808559360743808,0.111656148986054,0.710840893588522,-0.0557965368687778,0.214711648632482,0.43475389106512,0.576943218761432,-0.166394959526661,0.037607339730223
-0.255893063876677,-0.0139716632981677,-0.0246311456309716,0.0759007029594434,-0.0163904568261142,0.407017740389102,0.578503503083517,-0.244828138078391,0.436276597110179
-0.941492836104641,-0.126037269423996,0.265666236046002,-0.123130563351722,0.213635823731784,-0.092010703490395,0.315977728177839,-0.372949977326686,0.240402447170141
-0.198113689076958,0.0531515185046043,0.0942761312332063,0.0666197545386473,-0.19019623100441,1.01978653850904,0.524692299559563,-0.0518263556733105,0.188803262561622
-0.0676181130934996,0.0507913030174998,0.754669538932436,-0.0679582714939011,0.00899702056915608,0.274722184518099,0.821892480296549,-0.0781847052426548,0.220994811454514
0.101929060649374,-0.107311325127805,0.0308462566324028,0.0564992420903909,-0.0760203563645567,0.664615787083755,0.813081585527716,0.0639089922891207,0.0752976439893351
-0.639005940884776,0.0523576505065488,0.262234560528574,-0.121136428092716,0.174036619891988,0.367262097643246,0.0751743051537908,-0.211133861813897,0.07127333265539
-0.377128713394236,-0.0176552789341082,1.30512106185212,-0.0466685778773925,0.0604726143506467,0.000742195594916062,0.339096114708335,-0.153180039103521,0.348941035551247
-0.567330008111509,-0.0288834402143276,0.241180676907292,0.0498662502438538,0.103003147975417,0.0370741704065294,0.000619047195407063,-0.0922562789000714,0.0975544943068911
-0.497221059308283,-0.0268013709316737,0.134631889347407,-0.0057688837839649,0.022684485939223,0.539813034504675,0.111750914116662,0.027692491138275,0.459696478421694
-0.137868119126656,-0.139155954914385,0.327026200859025,0.461926033022283,0.121614110504813,0.116120053293892,-0.0816962705231759,-0.201563858903113,0.332938584941948
-0.0132487291000309,0.123336209183723,0.0962229508397723,0.100852389542923,-0.0613362305683083,0.482344325726344,0.31578803424512,-0.0105808001520524,0.312613955836187
0.0603387336523289,-0.112412935649162,0.0383113387229821,0.292782401030286,0.151948284982457,0.122567589915111,-0.152942171100668,-0.105299082565396,0.0800728357728417
0.178550402006025,-0.0204565514206871,0.168909007372598,0.0042459542290878,-0.00119467923572891,-0.0350065310745089,0.945540289984883,0.181225439982962,-0.140294771452546
-0.0635924256533009,-0.143628833253771,0.0410882783556517,0.158063825756999,0.171905702661034,0.402966583339783,0.889341983341165,0.124008714318142,0.228300665647946
-0.162654821895754,-0.154269106149067,-0.0672996940803872,0.00206230455202228,0.0164744762492903,0.892031432426263,0.00690674408521108,-0.160652942324622,0.679528336777485
-1.16453862657396,0.0369849797669568,-0.358577514519597,0.0783089985624388,-0.425174124434713,-0.0960216925137116,-0.0132483156683083,-0.0602401981903244,-0.030997638686495
0.00556754944045479,-0.0621282938110184,0.0915214316845079,-0.0846050502747469,0.392424230208307,0.575357889814764,0.149154165908479,-0.067734571474829,0.0234770118203282
-0.538533050917138,-0.15695450757195,0.127654312725035,0.00438988451234668,0.245498666143136,-0.00264661097478935,-0.0682455262870034,-0.205179950000844,0.514308388627208
0.00447550862071733,0.0326225452177225,-0.0565632891777872,-0.0598292675082135,-0.0851308637114827,0.610845889826576,-0.234169161237041,-0.102109605814549,0.597554402497241
-0.156103014539987,0.000188303100346204,0.0412347548076895,0.265009613344835,0.0116661243046021,0.477873716270989,0.512937761015333,0.0327360131759775,-0.0556428812791072
-0.495138947765957,-0.158096733137553,0.0468409769191611,0.0415223211399729,0.00897637058468748,0.306908532904417,0.523016966400717,0.277422093830427,0.0898109812074201
0.046947493266355,0.0964793755220263,0.761420170996523,0.0185900310584808,-0.00456687500568709,0.534636256370582,0.550642968754442,-0.0218093852236814,0.179565705956038
0.159517803248263,0.0401190321094171,0.690649299564159,-0.0481418348375628,0.0432366258628316,0.0113021644510543,0.842473044216182,-0.0171008864732185,0.141889983582811
-0.0405971829661613,0.0226059590006535,0.616262143858659,-0.0933232505760921,0.0154896304212793,0.136950873730523,0.243056810781375,-0.0854000677394908,0.145355591910785
-0.181000586840619,-0.017842456895415,-0.00919991453837365,0.230119501570916,-0.0837540378644288,0.261125011141462,0.285655365230838,0.0270917865715887,0.0994784538587399
0.0988908872386989,-0.107869829545339,0.0674169377852927,0.0832742867432613,0.158660152004476,0.787860415329618,0.374024611628925,0.0869638380074761,0.0739491295493844
-0.116957013074336,-0.161489502610462,0.448054738561496,0.165456767889516,0.292496892494817,0.75419256992549,0.253212173401669,0.135955713233166,-0.0793243778875299
-0.237102633246016,-0.0429743220257235,0.861186350005827,-0.000694414116883202,0.0859172596489737,-0.127664406598621,0.0395243847903686,-0.0839248861047581,0.286418835083976
-0.524619464427184,-0.112468141508557,0.0992060243691579,0.0125688198194271,0.131887232394211,0.434532564160576,0.383861407580213,-0.416969057463203,0.346746289764185
-0.0428337128840885,0.0159087311757737,0.247603955505202,0.261502352738705,-0.247610252318878,1.05024217587076,0.540364922409983,0.0149318552586934,0.140889877803301
-0.140106924009141,-0.201628177235343,0.224351118532985,0.288034479919765,-0.0995069633742767,1.09932986079199,0.579156183984598,-0.00615002236158357,0.29323830710069
-0.0297411212165217,0.0578736674662252,0.224681880902313,0.071251258379097,-0.22601163960494,0.489845522173748,0.495896639432164,-0.0559540287252505,0.376527055626072
-0.465448795452941,0.0372515719012236,0.152580575480267,-0.00310542873939212,-0.127357111913451,-0.0065420719424738,0.0634677832727624,-0.0482994699254031,0.0775471912099022
-0.066941671737386,-0.0203975518841464,-0.0627079296172468,-0.00915132313702927,0.512132242137207,0.0373798080093897,0.185876938781707,-0.15301065448088,0.525928571088335
-0.634839203583375,-0.0305763241909869,0.378310459730541,0.28835898082389,-0.368923200154657,0.800195320385715,0.787681189604678,-0.487557140350297,-0.205736269911985
0.034012139888829,0.0265628176213372,0.0246831483329732,-0.0453124318928602,-0.165253150337317,0.275177129522509,0.680137775905493,-0.130572501028471,0.0666122824034181
-0.0377581317842077,-0.137399011106695,0.148749981622174,0.173872334778638,-0.0944770254068716,-0.0523096996445274,0.581854602040368,-0.0200321382119526,-0.209420963870862
-0.410503726793269,-0.0619341719611501,0.222451634602787,-0.266506388210698,-0.196476389058907,0.150366418065042,0.289825606004901,-0.288357885298778,0.306347648815024
-0.595273160358713,-0.240688680645471,-0.541141084152049,-0.296654189040504,0.0390232109501518,-0.107918489815493,1.44207400222541,0.279620618628291,-0.0157299996372195
0.0464909421903128,-0.397122747672233,0.219158364865435,0.0294142416565322,0.227656671380752,0.0366762548574098,0.0801534464503293,-0.0716287873333421,0.178978243523538
0.0942651677916668,-0.092796226669476,0.792910296280472,-0.0673311799935989,0.0172781396962266,0.180790476962337,0.765554925011008,-0.0756495863883471,0.0852871918652715
0.0163343048203046,-0.129336828548928,0.745363433367853,-0.0630987232262865,0.0998138578717853,0.0506473731836063,0.229719489919446,-0.101381846937142,0.408488194775637
0.0161018475628549,-0.101828794176287,0.320283729046622,0.186299588426381,0.0271910358127139,0.560442715954573,0.99187822021133,0.0763071881219447,0.0264140698344049
-0.116000801711146,-0.00637172760301558,1.20857192072483,-0.0540864591799854,0.112279703068228,0.409302408237503,0.365955464612195,-0.156675668108398,0.0975509013754358
0.00639953601110171,-0.117319105440641,0.605850992222529,0.0373648363880781,-0.0315549857667676,-0.0200896169099352,0.119463652343516,0.0899626082657519,0.0279022955375305
-0.662568663908873,-0.136669544109476,0.138375287434278,0.0355254746054992,-0.0607667822649414,-0.0425548416962004,0.153347183045753,-0.472574076743797,0.0491353535074621
0.00365339011662247,0.0246062483593192,-9.1515384423424e-05,-0.00881819799650785,-0.0140498989129201,0.00919745728164134,1.27212508716937,0.00956313721740365,0.0146881512259447
-1.2705907358529,-0.0288562333015223,0.0219640900704237,0.0222991614008619,-0.00615958696029661,-0.00647450420359696,-0.00267643642813375,-0.0148097355161578,-0.0132934985861279
-0.254043958442444,0.00715605292955868,0.191874385630984,0.0825561492951339,0.0852089029649905,0.0172524901462978,0.512696886814455,0.0214811345840977,0.0534582372594867
0.0489449134106064,0.0932465849109381,0.0517549538904305,0.0647251411287861,-0.0667858415854035,0.363373313588792,1.05266140281465,0.0846444213163311,0.0923336298349273
0.00369813118883777,0.0246559678250575,-0.000196141730092414,-0.00887852805680023,-0.0140033439123251,0.00920735355020241,1.27200517948071,0.00956945233299156,0.0146961345079482
-0.154589983206283,0.122063199929102,-0.0286772694197412,-0.147041741429582,-0.109334365641495,0.323404024402019,0.791823202275932,0.190845249087968,-0.136148284080393
-0.0288490847975922,-0.0462532271045841,0.0779354828994858,0.307479587463222,-0.109149618200307,0.539837971942101,0.105412211730195,-0.0197249245335529,-0.0402743961597039
-0.103309968127481,0.0092239991180163,-0.137920930161595,-0.0848747625037944,0.824847339493009,0.399920963233422,0.429506607393771,0.0225817816511062,-0.0220002538897486
-0.191634070014773,-0.115904024152199,-0.268508037113042,-0.198430092945747,-0.169549993679297,0.169783367923789,1.44286800625077,0.268001966538876,0.162350517445
-0.346312890932388,0.028247174432189,-0.0431150876095359,0.0732242341368377,-0.0727531444709566,0.568379722088667,0.536678168481946,-0.00755174786519497,0.10728317770694
0.104011558898919,-0.0597753739452287,0.0919765744794283,-0.0232701848709258,0.707757272040432,-0.0885268837814746,-0.0832769115488281,0.0808365278137106,0.785943250914387
-0.225850360020918,-0.166793776750125,0.420270175515481,0.304447936632307,0.121388362486163,-0.0621347571262385,0.0405350395501234,0.109978176041202,0.453276439964635
-0.403123155423048,-0.0719888983409189,0.183201502291131,0.122489181344353,-0.252806768177076,0.825544339371744,0.295628207170119,-0.166685069347537,0.113596658619282
-0.134340901883593,0.0965429287268478,0.263723820283689,0.143882032509281,-0.139875402074381,0.593122547118838,0.717071328567854,0.167868513774325,0.251283512065003
0.132722894598452,0.0664309504564775,-0.0251386094576578,0.0450148642441341,-0.0428455026951196,0.510439323085948,0.963456283343203,-0.0363832333983707,-0.0388501725647523
-0.945671668054611,-0.428905803269182,0.289032995076465,0.277588230653231,0.0371132450867928,0.29750749432621,0.286000852569826,-0.493613539653071,-0.218160924520143
0.0110178629704274,0.0282889016841414,0.150486166929937,0.234529729878522,0.0498617667896637,0.0740733970956846,0.0144638071631391,0.0131849962689525,-0.0393727442838125
-0.10098301813229,-0.0850692899640335,0.0461326335685952,0.0667598996450987,0.310180010960068,0.0168884490830692,0.13392314029898,-0.137711682755924,0.49636915770528
-0.0150337214755387,0.00197404754957642,0.000104559404234372,0.0106594218940739,-0.0267813298177826,-0.0105813761788811,-0.00926708433363377,-1.26976184288667,-0.0341550344845771
-0.447762010146258,-0.210478379977447,0.40599629096038,-0.245272302871425,0.212811539696769,0.317398258522644,0.130656838762401,-0.0423297969488092,-0.000227477453019098
0.183684311280225,-0.022768435358263,0.857385056414533,0.0189458577624437,0.168811274266752,0.0496937621651052,0.797714035267221,0.0177141905646403,0.241323696523776
-1.27064353588807,-0.0288732126742697,0.0219765421819877,0.0223174956101433,-0.00616790404260525,-0.00652702520534643,-0.00267944102733964,-0.0148030563663966,-0.0132931160288567
-0.00858442809475868,-0.0261054583533458,0.1398760812251,0.0579548894304658,0.016700440236014,0.156116643004662,0.362226604608131,0.0266160282766172,0.0194507878627119
-0.394913276977448,0.121815580251642,0.745561590982246,0.0210985445389626,-0.00796256263720974,0.243374755998071,0.345101139952011,-0.425927594135556,0.396455090660836
-0.195132197253556,-0.0173227444413167,0.0119209896650982,0.0213099199606086,-0.248125644039957,0.750116792319151,0.313549665753844,-0.0766513449059668,0.226236030789728
0.0798606104444621,0.0140802677726213,1.25541916103092,-0.0212822749663472,-0.160760654929683,0.382848061754694,0.675499976916607,-0.0729463739213942,0.712087386130484
-0.332682242491182,-0.378895920356146,-0.0164900015291706,0.0126533920119041,-0.0278191445032681,-0.130663081361321,0.204248632680791,-0.449454856922545,0.0927776124141735
0.0221139197774152,-0.0959657224685353,0.141795673716571,0.0580700133657661,0.143699399884285,0.157444398249269,0.104263780486654,-0.0288767497453444,-0.0468214977375689
0.0594825935385598,-0.0432846117942853,0.154565667486814,0.759703831440864,0.00441608577743993,0.385491838050736,0.250621134073743,-0.0318901110628671,0.114647395204337
-0.174784255130064,0.0279387567800722,0.563882360872674,-0.0503797745667702,-0.0211901844883697,0.228107492175594,0.209299507133406,-0.171404315678636,0.188334285245437
0.176097609795002,-0.138354240017104,0.656164503129531,-0.263259639017972,0.486966742447611,0.547444848132254,1.55308566006847,0.0420031248312389,0.227932554206168
0.0110036687389146,-0.0080169923136868,-0.019396041426659,0.159396963810639,0.0527845957174389,0.353548876257902,0.576944714317777,-0.0898597833760713,0.0988095806149698
-1.27056051896218,-0.0288742759010443,0.0219651392157432,0.0223235895205156,-0.0061715193337365,-0.00651765939101345,-0.00262457882322931,-0.0148308330066397,-0.013281231595073
-0.315735704689619,-0.0244157424428,0.0883632324670849,0.0745622389046119,-0.0771025335221838,0.887052795691519,0.797247099662373,-0.252225804787977,-0.0199330764206387
0.0280533781275363,-0.0101740279530054,0.0884820219746887,0.0254387279508066,0.0445517080680879,-0.0698020559493955,-0.0348574569183659,-0.0111821792860023,0.150509415992687
-0.196070034062971,-0.0727702582988679,0.0384923566669904,-0.0496041770639124,0.167232244265704,0.257823323455276,0.758672524134006,-0.153287758484642,0.545615312199437
-0.144078721505655,-0.000205128854963377,-0.048113903191191,0.00271098252975932,-0.0390542929294053,0.445989427963287,0.373925285243365,0.116144132187089,0.767548155897145
-0.683442214230853,-0.217350150505517,0.1043357411438,0.00101858375858557,0.0735257169365848,0.195418026181494,0.13208787550692,-0.0191187212871333,0.1865473084593
-0.12028293727029,0.0276778567054807,0.0968392366655422,-0.0184349681238022,-0.189100022930386,0.881589780372621,0.316872208661339,-0.224374597921181,0.25800439793936
-0.097988714106676,-0.0203456902741537,1.07028105391529,-0.455213981886704,0.0424738078926158,-0.159629346061957,0.0335019785759869,0.0511609824605535,0.181483865762093
-0.163292588979648,-0.00518052168238192,0.183823262849687,0.238480951382334,0.0303682332238129,0.114403514244549,0.00404062804987326,-0.043902211294502,0.932564962816807
-0.115493908149413,0.0519152571105348,-0.0282762693752208,0.0519724947940405,-0.0691017276092838,0.523848814718832,0.481433529393341,0.114173736889295,0.147425879170623
-0.020952355650997,0.0747570243705518,-0.0141912885638318,1.26124663528541,0.0187076339920509,-0.017458161668471,-0.0077996996135159,-0.0111895017105645,0.0196370651370588
0.0135808929726089,-0.0311823413776517,0.158770743224249,0.0699793438725709,0.10257367703914,0.0126949507516887,0.0595800177339578,-0.0362899969609956,0.0768434702443974
-0.0294322494467973,-0.150526882986218,0.896659843781722,0.067135952523669,0.0393022871061079,0.15043420827856,0.659788921725113,-0.0707071433855226,0.139593826414139
0.0408426539426727,0.108922344462749,0.165856872185355,0.0537549512490747,0.124286352580669,0.315855507166044,0.269111184193892,-0.069166460804435,0.156889495514651
0.0235640322497881,-0.0573271189053814,0.055932696688064,0.179065419303604,0.0550196646869416,0.345828352481329,0.145063599750917,0.0597187890460527,-0.0694065456946253
-0.181517343240152,-0.0917385236008156,0.0643733824934398,0.113920904491338,0.194240541144859,0.404164419347773,0.307284022320333,-0.219079510077613,0.28253840460818
-0.117878168812648,0.132410733955473,0.738542758270885,-0.155228473906015,-0.1140092207151,0.0132772429865415,0.393002836579701,-0.0828067450048797,0.172444200175399
-0.157852947820849,0.102914689400509,0.403397670164079,0.690858078813594,0.0551173563097933,0.104102326113402,0.0449540071149186,-0.0448252502063422,0.202607826889136
