0.134505258652124,-0.0347842209605813,0.138493405015701,0.772142519396729,-0.174676386566698,-0.0532388922530755,-0.132319002331771,1.10528384571957,-0.202999974100875,-0.103918920297471,-0.0335317219737057,-0.0330449532387167
0.00860534635342169,0.00240662471481379,0.0355862471887374,1.51955868825529,0.0255257383894198,0.0184594450778413,0.0467395138569522,0.0436898526704965,0.00535936971787709,-0.0088044957364537,-0.00266291309530509,-0.0141264186093237
-0.172641532283849,0.110323200569238,0.375109952158931,-0.125637898406639,0.114609594758516,0.278549423277254,-0.0572494738809657,0.889028002007477,0.450033643996824,0.144826553625819,0.059257270171087,0.138919726169412
0.319861983243191,0.102950832024927,0.0383755392476939,-0.271747759111002,0.444524125222116,-0.0465691962805126,0.327989896491028,0.216350136652678,1.61802953580926,0.0510826190165496,-0.235162940150328,0.171847933299891
-0.276427125498654,-0.0540368881403754,-0.177445420627977,0.184232132602202,0.226152611069617,-0.0734485401489833,0.0173505933948839,0.133586330776396,0.11149910207436,0.900205992632306,0.465374959916263,0.673375509460857
0.0723596551716064,0.1446106218564,0.0181093891411335,0.939778923816242,0.0254563235664863,0.0669366444304571,0.0736854328141274,-0.0277860823780829,-0.00956753581263259,0.0761165030540276,-0.205417511175749,0.110084167774668
0.375794460267647,0.0820856542543629,-0.40102163909751,-0.00905930712381409,0.582624811047891,0.0537521283649367,0.0489613727967981,0.0156230445218268,0.00208446586031652,-0.0211776277678837,-0.0771526486932377,1.33785794859392
-0.0918183431655231,-0.157457190273132,-0.0713322558201113,0.0960545863359077,0.325850250686374,-0.525421797554059,0.0168537086755506,1.07625280494401,0.1873783988195,0.0970548340865106,-0.265369338362559,-0.0529713767496939
0.108346245845039,-0.105856502507515,0.475160958584443,0.528221074616917,0.0671565058046397,0.121132222304412,-0.0438978425854009,1.57135721527688,0.294414290564761,-0.578664809402273,-0.0843962892471826,-0.0370495282201739
-0.202749840539646,-0.341224920082475,-0.0517514309710396,0.825827739690263,0.211074379153857,-0.265686880676733,0.0586653006232654,1.1527056430427,0.116544043562167,-0.161771400999474,-0.0559945184948329,0.24998595659814
-0.20057176041113,-0.00472729945108785,-0.241889922575129,0.315467516406089,0.0389855661758167,-1.0103934902539,0.232706641403027,0.218480871168909,0.370799261658942,-0.316941510272113,-0.905465329455932,-0.112729970081056
0.13846967266507,0.2750098679022,-0.103848096858726,0.226346163123212,0.237599145240252,0.252575327228579,-0.0320401879503769,0.021592336988506,-0.28655902396758,0.381998825485822,-0.413428724950506,0.455144458481989
0.112398908350351,0.0144592398982626,0.577938705092873,0.211253688079582,0.369228378872279,-0.0592234386529551,-0.268975678833431,0.0529513001675292,-0.0145071385802025,1.13774114853109,0.186665642100685,0.374108754974741
0.0711217292178308,-0.00800958075696645,0.0453610010215248,0.297240975596258,0.0417558895684668,-0.137158975383804,0.0614516604303474,0.32424345294549,-0.0129716372940887,0.368170308569981,-0.237434595110479,-0.0597121018227192
-0.0437241649265896,-1.06470484432093,-0.220862933451575,1.23835789736258,-0.0982829365843934,-0.034568218713607,0.173137738152047,0.787531612893517,-0.0554572425731705,0.106317680612682,-0.308852772047021,0.40407591570868
0.235250702211982,0.0223635040461876,-0.103111845060924,0.449064609760804,0.00711174327799891,0.017875578240823,0.599809887923318,0.713523831243942,-0.288228758695651,0.255765447405907,0.0518195172859958,-0.32496886438017
-0.272570629595979,0.102173098106662,0.245675926485044,0.00804648345868486,0.104396796343529,-0.325129644099238,0.164903237097857,0.288422046879713,0.982750772688161,0.220993863785324,-0.269036313515142,0.658991778631873
-0.207785990742982,0.019205257564912,0.18951978508484,0.600249442892887,0.284989635985315,-0.209917628551226,-0.0428228882152881,0.160108903604938,0.0350577698278398,1.11207016874394,-0.0111858150523965,0.65969517343662
-0.0353814263139149,0.00430738975561162,-0.387091828299372,0.344915021779675,0.0862842658866967,-0.148576967512213,-0.216422844589252,1.34334582262204,-0.0982344947439113,-0.0824559105953302,-0.209319489918077,0.639439261646856
0.202098213017698,-0.00401776344111493,0.146898330898221,0.135580188745219,0.822957597511694,-0.0891058605715456,0.2948084813886,-0.0130303702360313,0.0245856769306422,0.145085929345709,-0.207576951127186,1.11008759579346
-0.136847462343378,-0.176608646559098,-0.164054737855067,0.0255980834733034,0.660969520128361,-0.121287840450634,0.279741741390272,0.267357755360391,0.348186746463594,0.0219529625432832,-0.135596093518967,-0.988881633609902
-0.196141479255766,-0.674818039812124,0.0928610264395385,0.552163662858112,1.01822134743701,-0.347587015791058,0.135052949408261,0.265307970070231,-0.144932009406941,0.0381864434985771,-0.932003914660597,0.131913815099715
-0.160935178770365,0.130111877170547,-0.234566400088033,0.516385661776138,-0.0270895900492424,0.0694470871996177,-0.0564280564881274,1.29278970231521,-0.22582506416377,0.154038292481577,-0.0650973102572913,0.144248303746799
-0.123213828716375,0.101312851083025,-0.121333496029713,1.31837093586871,0.261638550373748,-0.130146371400774,0.219417869743884,0.656757397167603,0.264232541256511,0.146155519425509,0.103147932473171,0.306769486346708
-0.21837515634175,0.35572727188221,-0.215468178862138,1.27862391553779,0.651401623628127,-0.191520476529844,0.1502025324938,1.08094884603907,-0.537464082891862,0.37804520485457,-0.240349955457423,-0.351531014760733
0.0249823482479608,-0.112244684371148,-0.123867768028174,1.60006875223135,-0.202927911890604,0.149825153570863,-0.0901453310108371,-0.0662792946053514,-0.165331813806189,-0.139221715991224,-0.320398976145773,0.301694136307597
0.0112152508167034,-0.422642834669302,0.0254203966286379,0.331658616916569,0.120313439667142,0.397037573030224,-0.042156914670338,0.00272001201499084,0.287465100875369,0.173969055004216,0.287238857374885,0.784682968900769
0.00571122341570018,0.162181095112776,0.195736851586558,0.282031807324673,0.306873474579424,0.108036872779118,0.0770226223118202,0.279752585990377,0.313697073814974,1.19634179771277,-0.305396652670002,-0.201796743345809
-0.0216255971612798,-0.0878270579730348,-0.0392311171388142,-0.386083390514066,-0.164910228083674,0.130555444032041,-0.0798685647000967,0.319611293005852,0.303499622470158,-0.0365061455728082,-0.19419193491173,-0.147291971559346
0.251295411989858,0.0584818817212804,-0.150695544684827,0.629175765697353,0.066358662935639,0.123367513395793,-0.261572328575153,1.386727486148,0.0150373254299705,-0.455453826092625,0.152857932641164,0.286177586227106
-0.142301243482019,-0.204634573589135,-0.215400821658347,-0.132578065054263,-0.154681774157156,0.242111765400594,0.180425021174572,0.0916837602236953,0.0160421928508399,0.232694311664993,-1.59459216495339,-0.0439724449145529
-0.26251313527656,-0.294484498007335,-0.0586024603483022,-0.101268375579485,0.334711311236936,0.113055437925675,0.0529583542240126,0.150312792790413,0.24398759482848,1.00043907753967,-0.0980389009585139,0.633959868728287
0.122833896925637,-0.165444218124224,0.358312646716686,0.147778828196279,-0.0777472165031381,-0.351651010883383,0.271360326744164,0.20262971674764,0.236316567732093,0.0272387109182777,-1.41667325551868,0.598418849185437
0.0504207205328137,-0.00812843328683399,-0.00503834643350487,-0.0488985843145668,0.0183896936030434,0.0119556224000711,-0.061355618393494,-0.00428967608119712,-0.0228057295742121,1.51611306485521,-0.00427449169545646,0.00463768999430675
-0.10063568275869,-0.0456801053948146,-0.0282452883260285,-0.317036083330358,0.245578032135969,0.21451840871411,-0.0917539296385296,0.259977393089528,0.398502691452221,0.0640498196429071,0.271964222733647,0.924245867858947
0.396221966747317,0.167342119769071,0.0274400147027292,0.0696483538825614,0.241141400999901,0.244766121066871,0.204913871431499,0.484718807102738,0.14268678561614,-0.176284548774938,-1.21952893609844,-0.159987889490603
-0.060284757794514,-0.160853685846823,-0.663360276623527,0.796429278271555,0.228380112504738,-0.262023975516642,0.416455506752263,0.524038120050455,0.187506532888484,-0.00265920207628856,-0.734777035505547,0.430070694820257
0.163984818399894,0.0663905652760365,0.0895183620908475,0.453513953533737,-0.157665042471378,-0.104559668021735,0.920292994749087,1.11833926130501,-0.299847108390962,-0.28909923824745,0.181852377086271,-0.199988060095652
-0.190180574584475,-0.0766886715034873,0.225427750783695,0.182464527946818,0.289314913581175,0.310702677664322,-0.130908770513843,0.850810653909078,0.31116802997359,0.46487011878605,-0.624023432411139,-0.284362356123879
0.0406120303332703,-0.0590963965996631,-0.0918395532928016,0.0751080939531467,-0.100198136263345,-0.816785175538913,0.00656214442550684,0.70707932786786,-0.0167025274465228,-0.325461245308906,-0.439964332890321,-0.140236246872712
0.225079012224227,0.431987121741052,0.092624028907248,-0.421071619950752,0.4313890867715,0.273876626472402,-0.0754104845035828,-0.00636328459903091,1.16985410951893,-0.225232541280771,-0.201347481395358,0.140645492914503
-0.439463069019889,0.0763345145150547,-0.54187322088448,0.532263109503613,-0.0150881663847437,-0.641890160817,0.656340045985834,0.445551077713918,-0.0809661724847071,0.125695406237746,0.00690656488721919,-0.0236621062613395
0.192431335743883,-0.181718127894716,0.0616916979805007,0.432867531684077,0.204106670023672,-0.0664403952466265,0.39683659999357,0.642483766142515,0.266811425376914,0.338370200834538,-0.522835243722306,0.288891396959627
0.34152144658242,0.349345618718892,0.387142456627395,0.619558144007636,0.124402344179969,-0.276956686359097,0.178921933036007,1.5996594138236,0.175435834022714,0.130750930575116,0.0842950655546932,0.155069069425211
0.00595655971213827,-0.389934820603952,-0.640061572975194,-0.0988456193280065,-0.00455268444750079,0.0268605947767089,0.155034574279216,-0.221262136908311,0.462147704390567,0.239530562487303,-0.315762880603509,0.0153192939980702
0.297532794393343,-0.0597359851129857,-0.225725383392668,1.30360101995409,0.0574420514698302,-0.0555746087937674,-0.119278818403828,0.196587373609042,-0.0408896374448524,0.61716030890397,-0.118339473044393,-0.143587634034146
-0.369491082148263,0.120408217160137,0.228140583557137,0.191088721335149,-0.149988864509619,0.264947608390419,0.436864918438876,0.594483030834355,-0.0861772066346755,0.0170776736487435,-1.62286755314085,0.269159760380282
0.0160007820370618,-0.252812187850363,-0.0220043898775031,0.213574892261437,0.372453272584261,0.170478840517554,0.725857880794013,-0.121704586732784,0.152609710865321,0.335480307068381,0.331651460514209,0.773787946181794
0.102393478301176,-0.337135807307975,0.126418762824405,0.40333989894684,-0.0578217794000022,-0.25446776689179,0.264719512510676,1.08840891724919,0.093441987389755,-0.119024697576253,-0.551851023502189,0.363048655503723
-0.154609178951658,-0.0911375234987731,-0.0498803672814456,-0.295297588088097,-0.0368403793651715,-0.250314820276158,0.105725741549848,-0.0620366240095676,0.419018468835404,1.14538727338467,-0.249788742373775,0.501970138512848
0.0785919291222046,-0.529666601448873,-0.100820434434466,0.675362071202825,-0.0311378879792922,-0.0351726214116304,0.0253354074964645,0.149082159344501,0.222112903271376,0.0897975990792859,-1.04333128494479,0.190626398587043
-0.288566150003241,-0.0541550566112043,0.270644597642277,0.265448905616553,-0.0227904315859805,-0.0618478707869139,0.184943002116806,0.00237672678933798,0.51209246822235,-0.0343150203253524,0.0489891435613858,-0.0897509612456835
-0.0263566947532698,0.0577365562376331,-0.0279004429383596,-0.0260112948450955,-0.0189371452715443,-0.0170423721038393,0.0315920301537593,-0.0207381974741745,-0.0191693771070884,1.51764343180515,-0.00835119246764293,0.0262597596741854
0.321132549597327,0.145099745467219,-0.167736710257674,0.853385279536154,-0.08883969022021,-0.178202867986535,0.142524325449521,-0.126801249246839,-0.123827553597552,0.118764809980331,-1.11939151312491,0.28621519852673
0.17994236731547,-0.252126271390542,-0.281851418111741,0.755276615219547,-0.256402750328584,0.127491697412803,0.103034831555645,1.26956916760501,0.129968347262907,-0.0617818719234622,-0.395268980318704,0.12057121438003
-0.0136225012669788,-0.232115858352644,0.142190388584251,0.613941640462882,0.0142250949023257,-0.173291233179874,-0.0172885932376978,1.27052948317621,0.180205281805488,0.0462097321979638,-0.292266777963184,-0.173315903646743
0.171807111413233,-0.0620763039549894,-0.0608262435259332,0.166390889730192,-0.0821249770012322,-0.305593370072196,0.176821400421986,0.0356893886873566,0.117783891369604,0.0903654459581373,-0.0767669863653397,-0.479971376351549
0.0701281957226705,0.229783480021702,-0.0930407656278671,0.119050491222346,-0.0716386194282492,-0.123569304456844,-0.105260884899955,0.0167575181780806,0.0260009826574152,1.18197273536045,-0.0362977219551772,0.0389605092696445
-0.247005384248397,-0.263820494464424,0.0399489480332131,0.4465967263217,0.269551968827033,0.196054526765876,-0.0632416343192963,1.06074739029448,-0.136429482916135,0.140284555844306,0.152920958999002,-0.0212436833404688
0.0294779772631997,0.00956073197223883,-0.0567058164632739,0.0120170785277813,0.0644195467686863,0.0538057365587825,0.0171485029461111,0.0389028829053686,0.0573391588441261,1.51091417153457,-0.00763957604545329,0.0413757980113698
0.110063536475744,-0.14160303594451,-0.00530045806211632,0.240944706291446,0.475963420175494,0.210802526016431,-0.327211171883425,0.0825361482556008,0.36902720761513,0.111492401464769,-0.0776608759464148,1.13008312344592
-0.252666228068581,-0.110753827416513,-0.82878646467319,0.480795937064198,-0.0222888378898904,-0.00740053290907383,0.408301252383516,-0.145795384659327,-0.0521737753619737,-0.019551649365799,0.168894625762944,0.22808983124715
0.214674107326852,-0.271755304306555,0.0904994845418479,0.257895744104031,0.102346663170811,0.220338324607934,0.366329673061132,0.494275732431561,0.248498311710323,0.103753494390369,-1.18545280113028,-0.2500594031022
0.138756148715685,0.0271347180242785,0.301649928570833,1.31086086444095,0.1659753071553,-0.11621690408366,-0.249252213260488,0.886331333675433,-0.252682179778446,-0.0815825647567767,0.160849676231407,1.03706446113449
0.0394769785627291,-0.0204997496010879,0.00558603802637947,1.51783231745508,0.00952315015477723,-0.0466094910958246,0.0468512182798948,-0.0354969215106804,0.00417900873210098,-0.013461492345749,-0.00890595700694519,0.00507678001397416
0.138541193749707,-0.0825897938709161,-0.178501475276191,0.0837999700653178,0.349648163782344,-0.191411718404217,0.703795236604886,1.12984895025038,-0.209988425056953,0.129455622705349,-0.548710214948352,0.232318564752427
-0.162586462279645,-0.118194075954499,-0.0605503795890137,-0.166481131372976,0.0994391072480811,0.179618106195279,0.372235679634994,0.615525800295816,0.0074866421840552,1.37447328828228,-0.227482579707784,0.101919213130249
-0.339592717908767,-0.588647087101429,-0.353009491522751,0.327252395404192,0.408680081155871,-0.406302852434052,0.465567776405183,0.38344007326247,0.380930414866234,0.220387282912603,-0.346521797662272,0.655588919652785
0.0338545685170653,-0.196479394632111,-0.198641445091767,1.54573781437428,0.219780269427607,-0.351038702768537,0.242951753157884,0.258313396760449,-0.00653515376395841,0.358861543795786,-0.477419308075655,0.151292395096
0.138779543475179,-0.0541603342731589,0.198613116866249,0.949888192065852,0.0488232997012903,-0.0528551929437207,0.0608902050408885,0.964574002204699,0.0133825337312888,-0.0869969053227836,-0.0984569885327912,-0.154192289329939
-0.179627244492372,-0.619740590762996,0.173498330875058,-0.230708098461123,0.521527677550775,0.0996426166549718,-0.228754491010688,-0.11915793713469,-0.0640825824042359,0.0857492146112415,-0.584725635689009,0.296520330174442
-0.217352199662827,-0.158623052572176,0.0852389627450196,0.661066966208332,0.200766249413562,-0.0933759180531721,0.00348745247674387,1.25940747122945,-0.0575559074953516,0.174788167467081,-0.0965348332366132,-0.232838878562424
-0.00535174448706338,-0.157271286562858,-0.473465501734626,0.11477190507203,0.322043547524795,0.0731328093122595,0.264411611437166,0.256571800340383,-0.115108587183676,-0.0431930446801111,-0.0856797411793103,0.583761886422226
0.0814160375249919,-0.171824637425438,0.188509680207432,0.525144764295737,0.228008594882042,-0.158320236260886,0.0377264399278801,0.542288306710526,0.574826383444856,0.607969324518473,-0.120828598103084,0.129384636621841
-0.207979109864335,-0.21526107473772,-0.145420182862551,0.354809719699796,-0.178867143294879,0.104137542203076,0.24957761640843,1.51782510317385,-0.165445981095789,0.12135362548336,0.0265583879375999,0.106276997103995
-0.0883751844647103,0.225464583815648,0.0772327486229756,0.219039120046431,0.179387686474461,-0.763871090843662,-0.279709161891456,0.916684266826962,0.193922679139513,0.167549469547982,0.0119650302617504,0.116687038834055
-0.018647999748123,-0.031362659081752,0.0409526564813554,-0.0176879976537032,0.0588176802935578,0.0287703348124655,0.0239227171197829,0.0249633206739253,0.0281785153440408,1.51344541781037,-0.0573296873361606,-0.0261534103232153
0.143780069945794,-0.647848044570235,0.182330246754477,0.239454316665197,0.0933617792983301,0.391393494996995,-0.266890912610899,-0.0868067351739485,0.0605603496636462,0.0504938301826492,-1.01343631260928,0.312031312973676
-0.0487752584504903,0.050249072616738,-0.0308130714979478,0.104934674557971,-0.0234393133012097,0.0173875704118496,0.00305077129339271,-0.0179651340973661,-0.0556899011745315,-0.0336878462902401,-1.50726601394916,-0.0289806993205441
-0.401068604597607,-0.347846675883351,-0.0601194110959113,0.0539411581353333,0.640574108507936,-0.0270483464525553,0.205318705063471,0.592161853509953,0.0416018345287625,-0.151413144102075,-0.102426731289551,1.20490507790485
0.172033815418922,-0.531084186991117,-0.1109541508005,-0.0102587265159775,0.0867172616718959,-0.317729913195401,-0.0237274800589247,1.01897606771408,-0.0913143920424027,0.127558926444741,-0.749163999739655,0.0060780267245355
-0.169119327521689,0.066250150083458,0.104518580144199,0.41552129415478,0.265684976696953,0.165139889274213,-0.357097002674734,0.199189106585727,-0.0198278284744156,0.481772253187255,0.273893145666104,0.340895928727457
-0.0894614331995545,-0.0759387476380755,-0.0145076132771608,0.520741927679385,-0.190653078784575,0.209998619855698,0.761759727411151,0.306684490046619,-0.056318552266899,1.07783574916457,-0.111567406355085,-0.204626047586902
0.039881523297292,-0.0215463723396816,0.21015382435863,0.611002698663643,0.167373369027171,0.132245689516219,0.141764690303672,0.548805005052562,0.093715771209494,0.544353467623522,-0.243359957600217,-0.0748408184508302
-0.240245909277659,-0.326726108206611,-0.172848103063226,0.150230501692509,0.150851840712509,0.395641591759955,-0.115435964056784,0.139414076613328,0.362486756229131,0.373051098064378,0.269548084934494,-0.0639630124665516
0.101338350301056,0.18061550242762,0.0100585859831579,0.629583461136709,0.0876205616407368,-0.0364606640764595,-0.226418275297331,0.310989183514335,0.27857330978915,0.327411907533176,-0.0481266124104902,-0.0308668963708341
-0.149594591282795,-0.0764840886635945,-0.337262743030695,0.356653792813384,0.226754855567638,-0.467022610209493,0.0789960608854784,0.674457425604944,0.0764306563199166,0.407744269879043,-0.694966789194757,-0.0353917647472894
-0.105385561656362,-0.0586022437718361,0.0153440033385834,0.301783561828841,0.292076220807502,-0.0501634573880265,-0.138602313976071,-0.0565895323028789,-0.251472954997055,0.083396222093405,-0.288427789626734,0.0628210462847036
0.0626776195058376,0.116907356617903,-0.0732226270646317,-0.06755300152397,1.00932649238368,0.00837223815891797,-0.0850686579308775,-0.263791847495545,0.154082267495857,-0.138370609468519,-0.102667051144329,0.847204172492579
0.021640452631405,-0.401169452253476,0.128922165033527,0.879316489401554,-0.0911626586726948,0.223892027538089,0.772958001400233,0.515299040049687,-0.163938767614374,0.284765144536513,0.148075934695472,0.526455308496846
